tree
version=v2
num_class=1
num_tree_per_iteration=1
label_index=0
max_feature_idx=8
objective=regression
feature_names=Column_0 Column_1 Column_2 Column_3 Column_4 Column_5 Column_6 Column_7 Column_8
feature_infos=[0.19419400967593772:0.47738825918455297] [0.15608823408269065:0.45860091845879741] [0.12553520932949908:0.23017223441954929] [0.10786228812754482:0.23340970094573019] [0.11215151616435053:0.31839048636214529] [0.21926282089044827:0.46921334988003149] [0.17714932988124055:0.58867469362046676] [0.12483080205569362:0.52472038091444106] [0.61231471644068769:1.182620348100236]
tree_sizes=1236 1326 1333 1261 1254 1334 1257 1337 1336 1188 1269 1272 1112 1035 1341 1342 1189 1046 1115 1116 1265 881 1272 1109 1034 1038 1197 1332 1039 1119 811 1272 1118 1275 946 1195 1114 738 1045 1115 1204 1194 1122 736 810 816 803 885 582 1198 1040 1018 793 740 659 660 653 731 1114 1200 733 972 1039 1192 1349 816 968 657 656 1040 1047 1116 812 962 659 882 1118 791 1117 889 586 1040 1124 887 1039 965 878 1206 1127 965 1202

Tree=0
num_leaves=15
num_cat=0
split_feature=5 5 5 3 3 3 5 8 2 2 8 5 5 7
split_gain=2.38422e+06 713909 348940 330633 203966 190876 104405 89400.9 69331.2 67187.8 61927.5 52864.5 34983.5 25792
threshold=0.31199750978900093 0.34958569730374484 0.28370433213327712 0.18222923307688596 0.17454659183542334 0.18389867308789523 0.32749400098768605 0.88764578963787832 0.1813066630885066 0.17922533112206082 0.86085420092924536 0.38927520579275487 0.30114494257159613 0.30253351329734152
decision_type=2 2 2 2 2 2 2 2 2 2 2 2 2 2
left_child=2 3 9 6 12 7 -2 -3 -6 13 -5 -7 -4 -1
right_child=1 5 4 10 8 11 -8 -9 -10 -11 -12 -13 -14 -15
leaf_value=194.4788039849058 190.41425626838526 188.37271195602577 192.26418067775268 188.45252295852794 191.04482783550449 187.94624872306082 189.69879365089113 189.18733275380998 189.95804190840033 192.01529357584616 189.27306604325096 186.74049598253026 191.46248399096982 193.14422228272852
leaf_count=546 5334 4189 1660 2909 1863 3556 7782 4186 1790 425 2815 677 1771 408
internal_value=0 -3.98319 14.9255 -0.0846715 12.0888 -9.80753 2.68203 -7.03793 6.88168 29.4869 -6.42692 -15.2836 17.6285 34.1658
internal_count=39911 31448 8463 18840 7084 12608 13116 8375 3653 1379 5724 4233 3431 954
shrinkage=1


Tree=1
num_leaves=16
num_cat=0
split_feature=5 5 5 3 3 8 3 3 8 7 5 3 8 8 4
split_gain=1.86853e+06 425686 383973 272442 216657 116198 105669 86400 66841 57384.1 66657.5 48045.3 27572 12702.7 12158.2
threshold=0.32012435542158518 0.36273943814807863 0.29031418957660765 0.18529336329009044 0.18740907306587012 0.89450283948982257 0.16828863804267186 0.1850073479023486 0.87243800151138851 0.30019195320038189 0.2781854832083856 0.19374126011054185 0.93343908290313815 0.80006863927053717 0.20688322349422164
decision_type=2 2 2 2 2 2 2 2 2 2 2 2 2 2 2
left_child=2 3 9 5 6 -2 -4 8 -3 10 -1 -5 -9 -11 -6
right_child=1 7 4 11 14 -7 -8 12 -10 13 -12 -13 -14 -15 -16
leaf_value=4.6199562289050498 -0.21919600699795053 -1.7924447215115664 1.8518951398817138 -0.83320985279006421 -1.0873415542959208 0.57926965011613674 0.8916392766771073 -2.26870470164853 -0.78695851704794795 2.5716367630074206 2.5905447667230597 -1.6814495659654309 -1.3031866646210031 1.7428832224378887 -0.27346667749070058
leaf_count=429 11895 1478 2517 3358 419 3706 6097 1739 3389 587 623 1509 638 608 919
internal_value=0 -4.60752 10.245 -2.27493 7.57685 -0.236136 9.41633 -11.1962 -8.77578 22.0557 27.4666 -8.80712 -16.1458 17.2799 -4.25447
internal_count=39911 27712 12199 20468 9952 15601 8614 7244 4867 2247 1052 4867 2377 1195 1338
shrinkage=0.124512


Tree=2
num_leaves=16
num_cat=0
split_feature=5 5 2 2 3 5 8 5 3 8 5 4 8 3 4
split_gain=1.43178e+06 427002 233562 186467 134682 121491 92079.5 70599.5 67379.5 56804.1 55421 51777.6 39753.7 38006.9 17923.9
threshold=0.33321070400273822 0.30805752227575095 0.18517117086455739 0.17850042721343903 0.17419451134264893 0.36273943814807863 0.87642251458355214 0.28370433213327712 0.19019767852772704 0.88993182635707324 0.366956101027756 0.22114403403584232 0.84876205867802801 0.18211535625060538 0.2366536866263157
decision_type=2 2 2 2 2 2 2 2 2 2 2 2 2 2 2
left_child=1 4 5 11 7 6 -2 -1 -6 -7 12 -3 -4 -5 -12
right_child=2 3 10 13 8 9 -8 -9 -10 -11 14 -13 -14 -15 -16
leaf_value=3.2273266222194557 -0.48186397323146024 0.60693098109408339 -1.660181050832815 0.14540057458979125 1.2726710937381938 -1.41665188807291 0.28174758339443207 1.84509211624508 -0.25607534419332534 -0.55134315050529903 -2.091092179004832 1.4541488431308833 -0.81928776514447732 -0.52769411853948678 -1.3106693730910428
leaf_count=737 5990 4974 1219 2500 2968 2101 4138 2661 524 2697 1418 1450 3131 2705 698
internal_value=0 6.50548 -5.50474 2.80767 12.7445 -3.32841 -1.36285 17.2308 8.37462 -7.47435 -10.5262 6.41268 -8.47601 -1.63875 -14.7339
internal_count=39911 18519 21392 11629 6890 14926 10128 3398 3492 4798 6466 6424 4350 5205 2116
shrinkage=0.124512


Tree=3
num_leaves=15
num_cat=0
split_feature=5 5 3 2 5 8 8 5 2 3 5 3 8 3
split_gain=1.17976e+06 303046 250637 169224 167215 74030.9 72918.2 67386.7 56802.9 55752.4 52870.6 31322.8 28000.2 20467.7
threshold=0.32355596957138683 0.28911430222015916 0.1870371079534873 0.17897069199638047 0.34894159612097481 0.82990212250463069 0.8585858750245654 0.30396935987749524 0.17436198535296152 0.18754888282840132 0.39086995846602768 0.19374126011054185 0.78879243209067396 0.16662801954664352
decision_type=2 2 2 2 2 2 2 2 2 2 2 2 2 2
left_child=1 8 4 7 5 -2 -6 -3 13 -5 11 -4 -10 -1
right_child=2 3 10 9 6 -7 -8 -9 12 -11 -12 -13 -14 -15
leaf_value=3.6122484095284597 -0.45035285214895721 1.6695018593086699 -0.84745351319999285 0.38851389701792888 -1.1984727870070806 0.27175225442322543 -0.43917366771632643 0.82866799718964346 2.4001841507176227 -0.56054561068233499 -2.4760011332336265 -1.4723309972079108 1.0768575282986346 2.4787450110221383
leaf_count=464 3105 2123 3125 3364 2730 7559 7016 4926 456 1342 474 2096 561 570
internal_value=0 7.54971 -3.88037 5.59085 -2.24261 0.492519 -5.23692 8.69135 18.7693 0.943493 -9.74718 -8.82386 13.4288 24.0074
internal_count=39911 13806 26105 11755 20410 10664 9746 7049 2051 4706 5695 5221 1017 1034
shrinkage=0.124512


Tree=4
num_leaves=15
num_cat=0
split_feature=5 5 2 3 5 8 3 8 8 5 5 3 8 2
split_gain=888744 339242 185608 133924 69400 66231.5 59079.8 51586.3 47540.4 49347.1 42405 35537 22921.8 13871.3
threshold=0.33704178862525608 0.29722708627165967 0.17802744725774164 0.17684442703512412 0.37636714778831787 0.94071256421512695 0.18598236447222102 0.89528853322562496 0.81828549508179338 0.37125493493075806 0.28370433213327712 0.18310136518540585 0.89058215752030268 0.17238760581305274
decision_type=2 2 2 2 2 2 2 2 2 2 2 2 2 2
left_child=1 6 7 8 5 -5 10 -3 13 -10 -1 -4 -6 -2
right_child=3 2 11 4 12 -7 -8 -9 9 -11 -12 -13 -14 -15
leaf_value=2.4319237107298952 -0.63559688149821447 0.58799698507871445 0.11464380202098916 -0.88335718076371172 -2.0778436899006372 0.28538412165155275 0.4261978681685108 1.5328276789214283 0.016492449875837086 -0.7366101609004595 1.4795447149975922 -0.41484046568200605 -1.2426340393352793 -1.5532928224234144
leaf_count=1202 574 8377 4260 7342 815 835 532 1007 5793 1757 1876 3644 1421 476
internal_value=0 4.37307 2.53084 -5.07533 -7.48794 -6.13423 13.1912 5.53833 -2.15237 -1.27312 14.8747 -1.03789 -12.4317 -8.46024
internal_count=39911 20898 17288 19013 10413 8177 3610 9384 8600 7550 3078 7904 2236 1050
shrinkage=0.124512


Tree=5
num_leaves=16
num_cat=0
split_feature=5 5 3 2 2 5 8 5 8 8 5 8 8 5 8
split_gain=692908 254507 130848 93179.3 76759.7 71060.8 56165.5 52850.7 46896.6 44961.5 40479.2 36112.6 32977.5 24718.6 15313.8
threshold=0.33676684529217299 0.30805752227575095 0.1744127095416603 0.17850042721343903 0.1813066630885066 0.38927520579275487 0.85692825915540016 0.2781854832083856 0.85893948107087159 0.86085420092924536 0.35682872513188013 0.89699040259828899 0.86560727370887303 0.2940614833613997 0.91033409774364438
decision_type=2 2 2 2 2 2 2 2 2 2 2 2 2 2 2
left_child=1 4 10 8 7 6 -4 -1 -3 -5 11 -2 -12 -6 -7
right_child=2 3 5 9 13 14 -8 -9 -10 -11 12 -13 -14 -15 -16
leaf_value=2.4342098706025861 -0.044520676158270565 0.26913502189076394 -1.0815621666676363 -0.42972224963894273 1.0385228020815582 -2.171934221447561 -0.48241298892508833 1.2334518669345391 0.92579365964405602 0.26153436024938242 -1.0484465773435798 0.84119833774299846 -0.16626503779184471 0.14005710261480289 -1.2654852458045163
leaf_count=663 2886 4983 3577 3755 771 552 7608 4168 2559 2383 936 947 2229 1252 642
internal_value=0 4.09123 -4.24571 1.59788 9.06556 -6.19978 -5.41468 11.2329 3.95294 -1.29343 -0.786945 1.39603 -3.4354 3.88238 -13.5418
internal_count=39911 20534 19377 13680 6854 12379 11185 4831 7542 6138 6998 3833 3165 2023 1194
shrinkage=0.124512


Tree=6
num_leaves=15
num_cat=0
split_feature=5 2 2 5 5 8 3 8 4 5 1 5 4 5
split_gain=556359 182697 91410.4 85121.8 77136.3 49267.5 38196.6 32910 31700.7 30180.4 23892.7 26887.8 22759.4 10369.6
threshold=0.31199750978900093 0.17890398501091584 0.1704125113903818 0.37125493493075806 0.33733309838487863 0.91140127658688874 0.18754888282840132 0.8585858750245654 0.23532119439399762 0.2781854832083856 0.35074729107441543 0.28537650451321012 0.2252224954511802 0.29800321761011955
decision_type=2 2 2 2 2 2 2 2 2 2 2 2 2 2
left_child=2 4 10 5 7 -3 9 -2 -6 -4 11 -1 -5 -8
right_child=1 3 6 12 8 -7 13 -9 -10 -11 -12 -13 -14 -15
leaf_value=2.5534926956852599 0.12879664720694681 -0.54447952293618185 1.6925020825018486 -1.5167824711506845 -0.30962370127429795 0.10983554751428658 0.39214230374118209 0.68077888799332786 0.35019399308232219 0.64302794940982932 0.67887484626283678 1.4423472110408895 -0.78953450847567586 -0.42141766042028422
leaf_count=427 4522 10412 475 1541 7693 2148 405 2671 1321 4275 474 1738 1204 605
internal_value=0 -2.09956 7.05999 -4.57746 0.239508 -3.47302 4.82247 2.68269 -1.70844 6.01044 11.938 13.3511 -9.62546 -0.749641
internal_count=39911 31512 8399 15305 16207 12560 5760 7193 9014 4750 2639 2165 2745 1010
shrinkage=0.124512


Tree=7
num_leaves=16
num_cat=0
split_feature=5 3 3 5 3 5 5 4 3 5 4 3 5 4 3
split_gain=401435 125361 109626 62202.7 51597.4 44433.7 43975 42292.4 36492.8 34094 29820.6 23419.2 21986.6 16176.8 6588.11
threshold=0.32749400098768605 0.17419451134264893 0.17895865940139824 0.30765876934189168 0.19084956282551327 0.29484223355104272 0.36442739354719639 0.20874343577716439 0.16160903852140279 0.35070806787890879 0.22208131972670808 0.19891221370276138 0.28370433213327712 0.21936554668204725 0.1960561907226914
decision_type=2 2 2 2 2 2 2 2 2 2 2 2 2 2 2
left_child=1 3 7 12 5 -3 10 8 -2 -9 -4 -8 -1 -5 -6
right_child=2 4 6 13 14 -7 11 9 -10 -11 -12 -13 -14 -15 -16
leaf_value=1.9038418048859702 0.33468583313686112 0.96816723113247871 -0.64515347910889487 0.42616012475877491 -0.31696000859696349 0.16920490533022375 -0.83010022509021131 0.52977308949992552 -0.37197488904714515 -0.098308701005360211 -0.15123291735934888 -1.8398572737241241 1.1188825818845727 1.0463658265014002 -0.90554419165011379
leaf_count=719 1387 1319 4079 3128 779 5998 3155 2684 6141 2669 3564 406 2559 833 491
internal_value=0 4.08152 -2.40181 7.14752 1.49507 2.51772 -4.68961 -0.410701 -1.9398 1.73689 -3.33365 -7.59568 10.3735 4.47397 -4.38502
internal_count=39911 15826 24085 7239 8587 7317 11204 12881 7528 5353 7643 3561 3278 3961 1270
shrinkage=0.124512


Tree=8
num_leaves=16
num_cat=0
split_feature=5 2 5 3 3 8 5 6 4 8 5 5 4 5 3
split_gain=375185 138462 96662.9 75223.5 58966 39890.6 29801.3 29363.9 25316.7 23853.7 36424.3 26700.3 15771.4 13572.5 8578.1
threshold=0.31199750978900093 0.19309153803579474 0.36084448558467141 0.16604984103672552 0.17454659183542334 0.85419801402308171 0.29484223355104272 0.38247859283713187 0.21710486014389865 0.80006863927053717 0.28370433213327712 0.30114494257159613 0.23200285796554176 0.34272568250826102 0.19084956282551327
decision_type=2 2 2 2 2 2 2 2 2 2 2 2 2 2 2
left_child=4 2 3 -2 9 -4 7 -6 -8 10 -1 -11 13 -3 -14
right_child=1 12 5 -5 6 -7 8 -9 -10 11 -12 -13 14 -15 -16
leaf_value=1.6459352440661323 0.52605833891589382 -0.79934145055509254 -1.1051765168525718 -0.078856450740057052 1.4116214525105 -0.35502932721240277 -0.12876627913122526 0.27918293330515775 0.63144133057599605 1.7808938202834661 0.39389374960649887 0.93487765084902452 -0.22013962561280528 -1.4794797654197376 -0.88657682300241947
leaf_count=501 3891 804 1382 17619 766 5455 1639 671 1157 1141 1306 1203 506 1102 768
internal_value=0 -1.49821 -0.795683 0.244807 6.02852 -4.07138 3.39627 7.10083 1.48696 8.70915 5.95979 10.8222 -7.75595 -9.58594 -5.00637
internal_count=39911 31527 28347 21510 8384 6837 4233 1437 2796 4151 1807 2344 3180 1906 1274
shrinkage=0.124512


Tree=9
num_leaves=14
num_cat=0
split_feature=5 2 2 3 4 8 5 5 5 3 4 6 3
split_gain=279903 95510.6 70485.3 52724.5 53384.4 46104.4 39499.4 30920.1 29161.1 23287.6 15197.5 7244.97 2731.54
threshold=0.33704178862525608 0.17027686760685976 0.19387250462276243 0.19019767852772704 0.19178622926737396 0.9300537618869138 0.37973547765678545 0.38277624378010505 0.28370433213327712 0.15881852900679064 0.21775400545679222 0.38805141691405981 0.19042232383807731
decision_type=2 2 2 2 2 2 2 2 2 2 2 2 2
left_child=1 8 5 4 -3 6 -2 -7 -1 -10 -4 -5 -12
right_child=2 3 10 11 -6 7 -8 -9 9 -11 12 -13 -14
leaf_value=1.6644240638313839 -0.29316617842980808 -0.1790663249181117 -1.5411689038767644 -0.19839835210200343 0.38562819389839825 0.41783397097776553 -0.95770027481129194 -0.47971771758614196 1.1598719147121548 0.5161940597137834 -0.55301364181399004 -0.67903698059632689 -0.94433175361078625
leaf_count=479 12506 3578 676 918 9422 2168 1564 819 1102 4310 461 1071 837
internal_value=0 2.4554 -2.84686 1.11327 1.84773 -2.19093 -2.94886 1.37426 5.86774 5.20117 -8.50705 -3.67952 -6.47964
internal_count=39911 20880 19031 14989 13000 17057 14070 2987 5891 5412 1974 1989 1298
shrinkage=0.124512


Tree=10
num_leaves=15
num_cat=0
split_feature=3 3 2 4 4 2 7 3 4 6 0 3 1 4
split_gain=145219 48873.9 48075.8 55544.6 28023.1 25743.7 25140.7 24110.4 34766.6 20857.5 17767.8 11495.1 9728.83 7393.74
threshold=0.17876471621262674 0.19374126011054185 0.1704125113903818 0.22428109963953985 0.23620751769642945 0.18311565173162275 0.36082307800032393 0.15926845689956221 0.18685505918223916 0.38548844866576942 0.33380537428756635 0.20396922134798615 0.33358397283419444 0.21804036498124688
decision_type=2 2 2 2 2 2 2 2 2 2 2 2 2 2
left_child=2 4 7 6 5 -2 -4 10 -9 -5 -1 13 -6 -3
right_child=1 11 3 9 12 -7 -8 8 -10 -11 -12 -13 -14 -15
leaf_value=1.0800946006154288 -0.085324118923363002 -0.88507217026500407 -0.047690946895073701 0.97707889829877714 -0.087041601468312704 -0.4600614284711505 -1.0081177424229593 -0.028831215162912243 0.53487529929445865 0.2939196026574144 0.33428921361414016 -1.3081234611743167 0.36358367055652813 -0.44531580109490443
leaf_count=1315 6035 1012 9411 987 1323 5401 443 2749 4407 2374 809 455 1682 1508
internal_value=0 -2.15506 1.69136 0.464841 -1.39327 -2.10799 -0.73132 3.43633 2.5545 3.97629 6.40027 -5.84782 1.3217 -5.0008
internal_count=39911 17416 22495 13215 14441 11436 9854 9280 7156 3361 2124 2975 3005 2520
shrinkage=0.124512


Tree=11
num_leaves=15
num_cat=0
split_feature=2 3 3 4 4 4 4 1 6 8 6 0 6 4
split_gain=119535 35138.4 34614.7 61422.5 46480.2 33034.7 17424.4 16716.6 15086.4 14897 12675.4 10787.9 9879.56 6203.85
threshold=0.17850042721343903 0.19190676640020013 0.16840276018335523 0.18885389784274464 0.15995557551534226 0.20512984540587967 0.22428109963953985 0.34706451178992781 0.39289773725695482 0.94233976166382794 0.40143251706488303 0.31677616154350935 0.33175542930511964 0.23620751769642945
decision_type=2 2 2 2 2 2 2 2 2 2 2 2 2 2
left_child=2 5 4 12 -1 10 -5 -6 11 -7 -2 -3 -4 -10
right_child=1 8 3 6 7 9 -8 -9 13 -11 -12 -13 -14 -15
leaf_value=1.5844422487835763 -0.3131399318865371 0.26531593594742264 -0.015223033221768595 0.13578308169179848 0.42125896714855754 -0.044017027500062721 0.49945781678801937 -0.07436124821465101 -0.97506538122265629 0.51045529914081722 -0.92545801377236725 -0.46487522568127687 -0.4622902288452313 -0.53488237171402675
leaf_count=496 4845 420 1084 5876 6345 9026 3151 1259 1174 820 593 1214 2699 909
internal_value=0 -1.74743 1.71789 0.693146 3.33665 -1.07542 2.11174 2.72226 -4.50667 0.0158311 -3.05398 -2.21703 -2.68794 -6.29557
internal_count=39911 19001 20910 12810 8100 15284 9027 7604 3717 9846 5438 1634 3783 2083
shrinkage=0.124512


Tree=12
num_leaves=13
num_cat=0
split_feature=5 5 8 8 2 5 5 1 4 5 3 6
split_gain=197763 84784.5 65919.1 44128.6 36255.6 36940.2 34690.7 31199.1 29562.5 23408.2 22054.1 5717.43
threshold=0.31199750978900093 0.34958569730374484 0.85550945133265199 0.93343908290313815 0.18847140850248167 0.27582258059373732 0.39701997179238707 0.33713826270282049 0.18685505918223916 0.36866724338871554 0.16375858674052998 0.37960571623144623
decision_type=2 2 2 2 2 2 2 2 2 2 2 2
left_child=4 2 10 6 5 -1 -3 -4 -7 -5 -2 -6
right_child=1 3 7 9 11 8 -8 -9 -10 -11 -12 -13
leaf_value=1.5550848372488877 0.26388332969178324 -0.43562394331049925 0.49214391369235516 0.54323360737146387 0.20588051672718147 0.17065441198943929 -1.4530471158894849 0.021737566754066698 0.73552948095705051 -0.21842851599189936 -0.25499599017502955 -0.39915995089996725
leaf_count=641 1493 9433 5087 1034 409 2073 552 3850 4753 1582 8417 587
internal_value=0 -0.985383 0.356578 -2.99371 4.46047 5.21689 -3.9519 2.32673 4.53175 0.657867 -1.41863 -1.19531
internal_count=39911 31448 18847 12601 8463 7467 9985 8937 6826 2616 9910 996
shrinkage=0.124512


Tree=13
num_leaves=12
num_cat=0
split_feature=5 5 8 5 2 2 8 8 8 5 2
split_gain=184300 49739.8 46559.9 39919.6 35145 34524.3 30600.5 21047.2 11869.1 12530.4 8377.6
threshold=0.32704750425062568 0.38277624378010505 0.88764578963787832 0.27582258059373732 0.19039253077114329 0.17704409680124225 0.87785676745605656 0.97751721952785708 0.88189410810435875 0.40640716722818809 0.19658237010034865
decision_type=2 2 2 2 2 2 2 2 2 2 2
left_child=3 2 5 -1 6 -2 -5 -4 -3 -10 -6
right_child=1 8 7 4 10 -7 -8 -9 9 -11 -12
leaf_value=1.2687374880035078 -0.073526846024365933 -1.189167918058061 0.035885731558872008 0.28114842448852551 -0.09221101885468011 -0.47054716903898147 0.82300667766804614 0.86107708711903896 -0.39157583426765996 -1.1857777627218813 -0.75263366451663294
leaf_count=683 6269 674 7441 11797 989 7446 1879 513 1386 402 432
internal_value=0 -1.69092 -1.20606 2.70428 2.36464 -2.32275 2.85703 0.71754 -5.95223 -4.58739 -2.36365
internal_count=39911 24131 21669 15780 15097 13715 13676 7954 2462 1788 1421
shrinkage=0.124512


Tree=14
num_leaves=16
num_cat=0
split_feature=5 3 2 4 3 5 4 7 7 8 3 8 4 2 0
split_gain=135417 52908.2 34127.2 30581.7 30704.5 29498.2 23589 26371.1 18025.1 17547.8 12765.4 10706.3 10310.9 16763.4 5073.55
threshold=0.31481035831790155 0.17815050962764722 0.18208993855419411 0.22351445268001072 0.16375858674052998 0.28370433213327712 0.23620751769642945 0.3815066381592403 0.2921907542215792 0.78604782922001826 0.19084956282551327 0.94681160475698156 0.20874343577716439 0.19039253077114329 0.32977007026554767
decision_type=2 2 2 2 2 2 2 2 2 2 2 2 2 2 2
left_child=2 3 5 4 -2 8 7 -3 -1 -7 -8 -5 14 -14 -4
right_child=1 6 12 11 -6 9 10 -9 -10 -11 -12 -13 13 -15 -16
leaf_value=1.7261126040508417 0.26792776791654516 -0.36180287814231255 0.058890221547103778 0.25463668634093212 -0.18992457806005028 0.040480185623498775 0.13451807584419312 -1.360999177028392 0.68725734332754296 0.55004516763812561 -0.36312230313161781 0.90472053790496609 0.51021526558101815 -0.33670336553242103 -0.49481404361332099
leaf_count=469 3026 10447 412 3203 9089 1371 2378 428 599 4569 1204 452 1054 550 660
internal_value=0 -1.10762 3.18945 0.15835 -0.605657 4.34973 -2.4896 -3.22299 9.1976 3.47557 -0.258851 2.69486 0.145255 1.75605 -2.25094
internal_count=39911 30227 9684 15770 12115 7008 14457 10875 1068 5940 3582 3655 2676 1604 1072
shrinkage=0.124512


Tree=15
num_leaves=16
num_cat=0
split_feature=5 4 2 2 6 8 5 1 2 1 5 5 4 1 2
split_gain=106954 37416.3 36114.1 34272.3 29932.7 23811.1 31324.5 27550.1 17683.4 17580 19072.2 15846.9 9009.79 8796.01 5267.24
threshold=0.32749400098768605 0.23489014359316643 0.1618758952735885 0.17027686760685976 0.458731777246695 0.85550945133265199 0.28911430222015916 0.33144936117794116 0.18677441393362917 0.34931585109636515 0.31646015279032563 0.35682872513188013 0.25808561177455291 0.35885795601729448 0.1980011909174047
decision_type=2 2 2 2 2 2 2 2 2 2 2 2 2 2 2
left_child=3 2 11 9 -4 6 -5 -7 12 10 -1 -2 -3 -11 -10
right_child=1 8 4 5 -6 7 -8 -9 14 13 -12 -13 -14 -15 -16
leaf_value=0.85573339851182217 0.60854894065501897 0.43919375828056056 -0.2620031763818319 0.60824289619632099 -1.3190285377616888 0.81317148848823972 -0.075246183066880717 0.079395728765419171 -0.029549109977727712 -0.32157366734340659 0.24879116735950282 -0.20481663375085613 -0.076272458241650118 0.4408308664595198 -0.50541286813665709
leaf_count=2572 1063 2461 16838 1227 427 1528 6809 1664 1492 466 1182 567 662 472 481
internal_value=0 -1.24082 -1.88976 2.10241 -2.31508 1.15197 0.231962 3.46343 1.16242 4.37362 5.34189 2.60596 2.64497 0.482493 -1.17666
internal_count=39911 23991 18895 15920 17265 11228 8036 3192 5096 4692 3754 1630 3123 938 1973
shrinkage=0.124512


Tree=16
num_leaves=14
num_cat=0
split_feature=5 5 3 4 6 1 5 4 7 2 4 3 4
split_gain=102323 31838.7 26224.7 29908.2 38479.9 26739.8 25408.5 21813.1 21424.1 17316 15546.5 15309.2 7530.14
threshold=0.32671984007353172 0.36273943814807863 0.16708872985102499 0.18811387775664926 0.38841651062028643 0.34931585109636515 0.29722708627165967 0.23407733603709738 0.3815066381592403 0.17171039985442851 0.23532119439399762 0.19133094481043986 0.1693945795351986
decision_type=2 2 2 2 2 2 2 2 2 2 2 2 2
left_child=2 7 5 12 -5 6 -1 9 10 -2 -3 -9 -4
right_child=1 8 3 4 -6 -7 -8 11 -10 -11 -12 -13 -14
leaf_value=1.2410164840518907 0.061367456257617831 -0.42335005978479723 -0.55659711696701553 0.48585944772290152 -0.019538150236038571 -0.37377583810681364 0.44463003967234077 0.32837462197697764 -1.1079054876638073 -0.24218480536348796 0.037278194930151054 -0.35038749475867814 -0.087543719689020652
leaf_count=850 4224 5257 759 5052 4333 443 2364 2807 591 9346 1441 629 1815
internal_value=0 -1.36512 1.91589 1.19739 2.02649 4.26142 5.26722 -0.614431 -3.1145 -1.1851 -2.60195 1.635 -1.81975
internal_count=39911 24295 15616 11959 9385 3657 3214 17006 7289 13570 6698 3436 2574
shrinkage=0.124512


Tree=17
num_leaves=12
num_cat=0
split_feature=2 8 4 3 7 4 4 8 7 3 6
split_gain=46417.8 19028.2 18636.9 25814.8 17921.9 22029.5 21471.7 16344.1 13801.2 11801.8 5016.41
threshold=0.18302355776495871 0.96745311625596553 0.19178622926737396 0.17876471621262674 0.32009075666883602 0.22428109963953985 0.18652043890318534 0.83130550278884408 0.31577521086595417 0.20026280668031085 0.36983648476896652
decision_type=2 2 2 2 2 2 2 2 2 2 2
left_child=1 4 7 8 6 -6 -1 -2 -4 -5 -9
right_child=2 -3 3 9 5 -7 -8 10 -10 -11 -12
leaf_value=-0.015661734952293227 -1.0311070700721865 0.72902599659106282 0.61738403761719718 -0.17836647405917114 -0.24213500247678094 0.15611379719029311 0.2647575408936057 -0.070684829060978255 -0.0057819592031092444 -0.68260953102693922 -0.59763138583704611
leaf_count=7033 696 722 923 7850 4855 3868 10601 755 1355 797 456
internal_value=0 0.786318 -1.52292 -1.01749 0.646899 -0.524668 1.22729 -4.41062 1.97486 -1.80753 -2.17368
internal_count=39911 27079 12832 10925 26357 8723 17634 1907 2278 8647 1211
shrinkage=0.124512


Tree=18
num_leaves=13
num_cat=0
split_feature=5 5 3 4 6 5 3 2 7 4 6 4
split_gain=65101.9 33460.1 24994.4 25139.1 22276.7 21780.7 19416.2 19313.9 15854 13875.5 11992.7 5087.31
threshold=0.30114494257159613 0.34958569730374484 0.16441032438473716 0.2222096962245452 0.40204758259078605 0.27582258059373732 0.17599638393881686 0.19426182411228002 0.39905083250627732 0.18731210281617669 0.32366759011063012 0.21738488385978635
decision_type=2 2 2 2 2 2 2 2 2 2 2 2
left_child=4 2 10 -4 5 -1 -6 8 -3 -7 -2 -9
right_child=1 7 3 -5 6 9 -8 11 -10 -11 -12 -13
leaf_value=1.2877553181233956 0.90406464025309097 -0.13562353479891667 -0.12100335243323697 0.17895926825234973 0.52862103596686505 0.096272795241812661 -0.62872269958763616 -1.0030813433939485 -0.89119668898372029 0.63905859654380615 0.24779522913912072 -0.48776239571296737
leaf_count=562 519 10739 12944 6512 403 1150 507 459 450 2047 2693 926
internal_value=0 -0.463946 0.261302 -0.164713 3.51013 4.58578 -0.916641 -1.77259 -1.33464 3.56912 2.84647 -5.29985
internal_count=39911 35242 22668 19456 4669 3759 910 12574 11189 3197 3212 1385
shrinkage=0.124512


Tree=19
num_leaves=13
num_cat=0
split_feature=5 8 8 8 5 6 2 7 5 7 7 4
split_gain=51430.4 42901.9 34191.6 31545.6 32807.6 22501.7 20384.1 18596.8 17376.1 16384.2 8814.4 8005.33
threshold=0.34443563738415062 0.80988853700803631 0.97751721952785708 0.87785676745605656 0.29484223355104272 0.37439491622960502 0.18302355776495871 0.30075461521943925 0.33704178862525608 0.39905083250627732 0.31053970349921761 0.19758594857504755
decision_type=2 2 2 2 2 2 2 2 2 2 2 2
left_child=3 11 9 4 7 8 -6 -1 -5 -3 -7 -2
right_child=1 2 -4 5 6 10 -8 -9 -10 -11 -12 -13
leaf_value=0.73394839581149429 -1.3691911200220712 -0.1536873004193893 0.67690230641363536 1.0325440647658031 0.044859285576208302 -0.32136942398729729 -0.26182719430980456 0.10688059769289428 0.091260303017970265 -0.82477052811987406 0.27560997146210114 -0.64513054448085394
leaf_count=1423 464 12834 756 1112 12044 435 4660 1531 425 592 3120 515
internal_value=0 -1.54696 -1.10371 0.792073 0.216568 3.0109 -0.325968 3.28953 6.21214 -1.47309 1.62263 -7.95275
internal_count=39911 15161 14182 24750 19658 5092 16704 2954 1537 13426 3555 979
shrinkage=0.124512


Tree=20
num_leaves=15
num_cat=0
split_feature=5 8 5 2 3 1 5 8 6 5 5 7 8 5
split_gain=45830.2 40718.1 34175.9 24507 21059.9 17214.6 18169.4 19156.9 15215.6 13325.7 13028.9 8614.35 13607.1 6336.8
threshold=0.30765876934189168 0.85550945133265199 0.366956101027756 0.17238760581305274 0.1960561907226914 0.3160688379151142 0.28537650451321012 0.79425424187674587 0.31425676273833647 0.33615007977074557 0.40640716722818809 0.30712325010903041 0.78604782922001826 0.29225596033382667
decision_type=2 2 2 2 2 2 2 2 2 2 2 2 2 2
left_child=5 3 4 8 -3 6 -1 -8 -2 -5 -4 12 -7 -13
right_child=1 2 10 9 -6 11 7 -9 -10 -11 -12 13 -14 -15
leaf_value=1.3406317259289688 0.66088570519206757 0.20180693463616545 -0.15342000758614546 -0.19548371605434001 -0.45455916904572541 -0.033234381274583349 -0.24501362158658341 0.74864217143210421 -0.06131209477633634 -0.49296979242752681 -0.85827727829862055 -0.27181788746190466 0.54556767496722069 0.1606390001391198
leaf_count=431 505 13156 4433 5196 803 990 456 872 4351 4291 450 828 1706 1443
internal_value=0 -0.446782 0.519181 -1.71679 1.31647 2.41619 5.10877 3.26107 0.107687 -2.65224 -1.75694 1.45963 2.66909 0.0172199
internal_count=39911 33185 18842 14343 13959 6726 1759 1328 4856 9487 4883 4967 2696 2271
shrinkage=0.124512


Tree=21
num_leaves=10
num_cat=0
split_feature=5 4 4 6 6 7 4 3 2
split_gain=27030.8 28176 32108.2 30151.8 15148.3 15145.4 14567.8 17404.5 8833.32
threshold=0.33330882444473214 0.15679300063089743 0.18731210281617669 0.3530414975843798 0.31984891664577747 0.414736362495077 0.23489014359316643 0.1744127095416603 0.19174124721184266
decision_type=2 2 2 2 2 2 2 2 2
left_child=1 -1 4 -4 -3 6 7 -2 -8
right_child=5 2 3 -5 -6 -7 8 -9 -10
leaf_value=1.0634553782996348 0.013918117691917082 0.2713031953531862 0.6189380613354194 0.0981369742585399 -0.30902432438718719 -0.75450491900742578 0.21705856598023471 -0.24601373201151774 -0.21327073334561933
leaf_count=463 6826 851 2030 11545 3808 538 3306 9594 950
internal_value=0 0.833193 0.636652 1.41477 -1.62734 -0.816308 -0.679146 -1.10707 0.968297
internal_count=39911 18697 18234 13575 4659 21214 20676 16420 4256
shrinkage=0.124512


Tree=22
num_leaves=15
num_cat=0
split_feature=0 5 5 4 2 6 3 2 4 1 0 6 5 4
split_gain=35256.5 34532.3 23937.1 22559.7 19046 17550.3 16535.6 15420.7 14087.6 12478.8 10065.6 7084.71 4890.76 4704.07
threshold=0.32803326437731845 0.35342278462862942 0.31199750978900093 0.21710486014389865 0.18173706282080218 0.35164874555095238 0.18310136518540585 0.19611613513818404 0.22208131972670808 0.33789106209017244 0.32570311753126435 0.42304976212014006 0.34342812071380463 0.23713766256493521
decision_type=2 2 2 2 2 2 2 2 2 2 2 2 2 2
left_child=1 6 3 5 -5 -2 9 8 -4 -1 11 -3 -9 -8
right_child=2 10 7 4 -6 -7 13 12 -10 -11 -12 -13 -14 -15
leaf_value=0.41113777631024068 0.33580270045345922 -0.14392831565582592 -0.20861477478918439 0.97320528213344748 0.087941988159782339 -0.2597181239979432 -0.053011194351131295 -0.2422045058346832 0.030832637410933523 0.056918874357685501 0.42434394788992869 -0.59393621267780605 -0.72557730280566202 0.3475821005278702
leaf_count=7191 1245 3325 10949 792 729 2000 2815 526 5829 1981 416 655 915 543
internal_value=0 1.1472 -0.754852 1.23924 4.41835 -0.246249 1.99383 -1.27732 -1.00645 2.6892 -1.26256 -1.75451 -4.42072 0.0900312
internal_count=39911 16926 22985 4766 1521 3245 12530 18219 16778 9172 4396 3980 1441 3358
shrinkage=0.124512


Tree=23
num_leaves=13
num_cat=0
split_feature=3 5 4 8 5 8 5 5 8 0 0 5
split_gain=29239.5 20569.3 20413.6 17456.1 15694.7 13038.2 15214.6 11928.6 11706.2 21113.8 8761.56 4250.12
threshold=0.17045829484507094 0.30114494257159613 0.24740403829417909 0.97751721952785708 0.27582258059373732 0.80988853700803631 0.36743401516135304 0.31836725387614906 0.78053869302639445 0.33453671844442628 0.35338901332569311 0.35463227163920963
decision_type=2 2 2 2 2 2 2 2 2 2 2 2
left_child=1 8 3 4 -2 7 -7 -3 -1 -10 11 -4
right_child=2 5 10 -5 -6 6 -8 -9 9 -11 -12 -13
leaf_value=0.16308656915830089 0.66495916932083432 0.18429010316852132 0.56605842873541912 0.68555527798094784 -0.11508483366285958 0.25965399169250275 -0.22688935454434739 -0.43242669078569834 1.3431119548190187 0.19572277599744156 -0.11652722524300532 0.19757725800630382
leaf_count=635 406 837 1111 443 25039 6521 1173 1153 580 443 669 901
internal_value=0 1.45568 -0.442313 -0.714845 -0.82374 0.896405 1.48769 -1.38216 4.71326 6.8112 2.1837 3.22842
internal_count=39911 11342 28569 25888 25445 9684 7694 1990 1658 1023 2681 2012
shrinkage=0.124512


Tree=24
num_leaves=12
num_cat=0
split_feature=5 8 6 5 3 4 0 5 8 7 0
split_gain=25378.8 29363.1 28786.5 22077.5 16116.6 14998.6 13180.8 13127.8 7714.71 7266.6 4720
threshold=0.38522540562441615 0.89699040259828899 0.38761797513495383 0.32051423479370855 0.18714173276265753 0.24240414839449839 0.32058941263996116 0.32355596957138683 0.88189410810435875 0.34769972709368174 0.34251214342272923
decision_type=2 2 2 2 2 2 2 2 2 2 2
left_child=1 2 3 -1 7 -4 -6 -3 -2 10 -10
right_child=8 4 5 -5 6 -7 -8 -9 9 -11 -12
leaf_value=0.22279563705060432 -0.81543943456135781 0.86196069045513712 -0.2712407936916636 -0.04515075332494517 0.50848704223832375 0.111005084453693 -0.27919321210075598 0.27726461439584971 0.11180412551419955 -0.68281538739704761 -0.40766871167148383
leaf_count=7939 547 675 8125 11927 437 1973 1333 5363 671 468 453
internal_value=0 0.247956 -0.201747 0.496613 1.97566 -1.57713 -0.67195 2.75427 -3.29337 -2.1653 -0.770168
internal_count=39911 37772 29964 19866 7808 10098 1770 6038 2139 1592 1124
shrinkage=0.124512


Tree=25
num_leaves=12
num_cat=0
split_feature=5 8 1 5 8 4 5 6 2 4 4
split_gain=28585.2 42097.6 20922.5 21037 20685 16562.2 15709 12014.6 11744.2 8839.67 8533.68
threshold=0.33704178862525608 0.8010298652729485 0.3160688379151142 0.28537650451321012 0.94681160475698156 0.15850712438826278 0.37636714778831787 0.38841651062028643 0.19039253077114329 0.21010435977900982 0.19264490623133504
decision_type=2 2 2 2 2 2 2 2 2 2 2
left_child=2 10 3 -1 6 -4 -3 -7 -5 -6 -2
right_child=1 4 5 8 9 7 -8 -9 -10 -11 -12
leaf_value=1.1381606113648453 -1.3537216334352382 -0.075366995740543161 0.78000288226351955 0.28905052151490529 -0.066983970993505532 0.071281176805013571 -0.40659422077899354 -0.16051448303831287 -0.32987346779486698 0.46819356428856851 -0.60930338198193357
leaf_count=424 402 13132 422 4446 724 9756 2680 5383 530 1384 628
internal_value=0 -1.0224 0.672545 2.36906 -0.664102 0.0828537 -1.05713 -0.0884692 1.78901 2.27689 -7.24155
internal_count=39911 18950 20961 5400 17920 15561 15812 15139 4976 2108 1030
shrinkage=0.124512


Tree=26
num_leaves=14
num_cat=0
split_feature=3 4 6 3 5 5 4 6 3 0 3 6 2
split_gain=23220.8 21675.8 35875.7 23854 15491.2 9927.93 8058.62 12701.7 7563.17 6976.18 6687.11 6490.31 4618.04
threshold=0.19019767852772704 0.19145836350899778 0.35612904618574365 0.15926845689956221 0.39086995846602768 0.36646917265553919 0.21050228623578685 0.38548844866576942 0.17243665945125106 0.35501216578767386 0.1960561907226914 0.32488667611456984 0.18774259219164321
decision_type=2 2 2 2 2 2 2 2 2 2 2 2 2
left_child=1 3 5 11 -4 -3 7 12 -5 10 -8 -1 -2
right_child=6 2 4 8 -6 -7 9 -9 -10 -11 -12 -13 -14
leaf_value=0.80694684419671214 -0.5158746707433447 0.53889079341564416 0.062050184860053322 -0.056604354968257657 -0.52751244389085128 -0.0059052146715414472 0.095236797569821313 -0.94866923893636401 -0.2758150767309252 -0.52726185185441099 -0.28507819112526434 0.20661339852657318 0.034989261831927798
leaf_count=409 414 3300 19037 4807 717 608 1739 572 5024 602 1218 926 538
internal_value=0 0.331946 0.874317 -0.816056 0.325726 3.64347 -1.95653 -3.88598 -1.35585 -1.12611 -0.488187 3.14778 -1.6272
internal_count=39911 34828 23662 11166 19754 3908 5083 1524 9831 3559 2957 1335 952
shrinkage=0.124512


Tree=27
num_leaves=16
num_cat=0
split_feature=8 5 5 1 6 7 0 0 8 7 2 5 8 7 0
split_gain=20649.1 19366.8 17640.6 15922.8 11911.4 10821.6 10472.9 10729.5 9491.84 14750.6 10895.7 9293.52 8878.89 15331.3 5029.61
threshold=0.83953968136872792 0.37125493493075806 0.30765876934189168 0.30576418937297994 0.40028517897148458 0.414736362495077 0.31647415260442635 0.34578544788185228 0.79203647938481792 0.28429767072367335 0.19462063997624326 0.29722708627165967 0.9570141090442178 0.36455848909580246 0.33950128277458302
decision_type=2 2 2 2 2 2 2 2 2 2 2 2 2 2 2
left_child=2 3 6 4 -2 -5 11 -8 9 -4 -10 -1 13 -3 -14
right_child=1 12 8 5 -6 -7 7 -9 10 -11 -12 -13 14 -15 -16
leaf_value=0.67514477692219821 0.22311669464007608 -0.1459255306333882 -0.016584677679805163 0.09663095754454791 0.81006628085221422 -0.53265649244189595 -0.17451666436119251 0.27307208876948219 -0.10372335286591729 -0.64929138757857741 -0.74367814237234275 -0 0.51602568914600488 -0.88576829344988872 -0.10401514117395719
leaf_count=735 1602 3017 908 17174 817 434 2516 1240 7595 1572 438 548 403 510 402
internal_value=0 0.567067 -0.908237 0.982315 3.39026 0.650657 0.628417 -0.210849 -1.6462 -3.36027 -1.11515 3.09707 -1.34917 -2.03544 1.63897
internal_count=39911 24359 15552 20027 2419 17608 5039 3756 10513 2480 8033 1283 4332 3527 805
shrinkage=0.124512


Tree=28
num_leaves=12
num_cat=0
split_feature=5 8 1 4 7 8 8 4 1 7 1
split_gain=16633.7 20298 15785.1 16211 13841.1 11677.4 11432.9 14141.7 13130.9 10745.1 5344.78
threshold=0.34822873527160086 0.80759623607331632 0.31985684848466517 0.16665561859775957 0.26541058666585771 0.92156637815572628 0.85787706734574976 0.20763424454369864 0.33430947315888138 0.3815066381592403 0.34516354022687618
decision_type=2 2 2 2 2 2 2 2 2 2 2
left_child=2 -2 3 -1 -5 9 7 -4 -8 -3 -7
right_child=1 5 6 4 -6 10 8 -9 -10 -11 -12
leaf_value=-0.41079278817897097 -0.7805215373898049 -0.12755444096383792 -0.21535663035114999 0.83517615538103462 0.1907817607702485 0.22318265432957982 0.35521702731395943 0.06379141688380302 -0.012833439199346076 -0.680045367825586 -0.092475388814833887
leaf_count=646 695 8514 6535 560 7143 2195 2246 4933 4525 586 1333
internal_value=0 -1.00315 0.366153 1.50554 1.91043 -0.712163 -0.154586 -0.763924 0.875231 -1.31183 0.830339
internal_count=39911 13323 26588 8349 7703 12628 18239 11468 6771 9100 3528
shrinkage=0.124512


Tree=29
num_leaves=13
num_cat=0
split_feature=5 0 8 4 8 7 5 8 2 6 4 4
split_gain=16529.1 15550.6 15903 21807.7 11545.6 9982.9 8795.67 7913.99 7471.76 7185.14 4491.85 4667.26
threshold=0.35295136271447197 0.31677616154350935 0.89450283948982257 0.24740403829417909 0.90745054575235595 0.37055952082387494 0.29484223355104272 0.80006863927053717 0.19358739745530154 0.40451431912393171 0.25004040917278308 0.19661960626284794
decision_type=2 2 2 2 2 2 2 2 2 2 2 2
left_child=1 6 3 -3 5 8 -1 -8 -2 -4 11 -6
right_child=4 2 9 -5 10 -7 7 -9 -10 -11 -12 -13
leaf_value=0.60538473741289089 -0.14150708531005482 -0.088894344984420531 0.38871256021968054 0.53450943946887874 0.1932562913355777 -0.71600825072648178 -0.13244201105407954 0.21925480872223824 -0.58291784055431883 0.020099789048368386 0.32566371783557641 -0.11934664211542548
leaf_count=748 5512 17248 1989 916 1032 619 1217 5268 672 1417 646 2627
internal_value=0 0.33695 -0.0880233 -0.460629 -1.09935 -1.91092 1.60637 1.22853 -1.52417 1.89466 0.179649 -0.246309
internal_count=39911 28803 21570 18164 11108 6803 7233 6485 6184 3406 4305 3659
shrinkage=0.124512


Tree=30
num_leaves=9
num_cat=0
split_feature=5 4 6 3 2 2 8 4
split_gain=12374.7 12840.9 23196.8 16866.7 11035.2 10630.4 10534.5 8998.77
threshold=0.40251697800027375 0.18811387775664926 0.35612904618574365 0.15780416137834991 0.18999131700676655 0.16253307474375697 0.85371038733179339 0.20938178701823804
decision_type=2 2 2 2 2 2 2 2
left_child=1 3 7 5 -4 -1 -5 -3
right_child=-2 2 4 6 -6 -7 -8 -9
leaf_value=0.76811232884620684 -0.53588346031501022 0.17850646451973468 0.045273020465084475 -0.26316227359393302 -0.16883401922464109 -0.077391142358964382 0.014765729965438564 0.53715268270804506
leaf_count=522 649 3142 19828 5752 4602 407 3329 1680
internal_value=0 0.100388 0.435409 -0.877138 0.039066 3.17788 -1.29362 2.44031
internal_count=39911 39262 29252 10010 24430 929 9081 4822
shrinkage=0.124512


Tree=31
num_leaves=15
num_cat=0
split_feature=4 6 8 5 2 3 6 7 5 3 6 3 3 8
split_gain=14255.6 21068.4 13237.4 18676.8 12638.4 12136.3 10833.3 18842.5 10732 8478.42 7814.53 6951.81 4993.79 395.639
threshold=0.22351445268001072 0.40451431912393171 0.82345728188360456 0.30765876934189168 0.17704409680124225 0.17426499017720784 0.38548844866576942 0.33883692092675316 0.31449278298318922 0.16737900696319846 0.44733323024986998 0.17154392381859634 0.17769588988466786 0.83363837402562546
decision_type=2 2 2 2 2 2 2 2 2 2 2 2 2 2
left_child=1 2 3 -1 8 -4 12 -8 13 -10 11 -3 -6 -2
right_child=4 10 5 -5 6 -7 7 -9 9 -11 -12 -13 -14 -15
leaf_value=0.10019669238900754 0.60266051091911554 0.055967467397520093 0.18187588586982431 -0.27664003349638899 0.61429810833167331 -0.037479546349353729 -0.31678848555541805 0.12473322638165209 -0.17073455262718554 0.31663467780721849 -0.74678645594942017 -0.36540121139586385 0.16426769231183933 0.81362529028780173
leaf_count=3349 402 840 7270 5198 518 8454 2491 3760 732 2228 584 2134 1549 402
internal_value=0 -0.365338 -0.0314898 -1.03416 0.935933 0.512569 0.245636 -0.4089 2.45742 1.56996 -2.63848 -1.97378 2.23233 5.70603
internal_count=39911 27829 24271 8547 12082 15724 8318 6251 3764 2960 3558 2974 2067 804
shrinkage=0.124512


Tree=32
num_leaves=13
num_cat=0
split_feature=8 5 7 3 0 1 5 8 4 8 3 4
split_gain=11754.1 30177.5 12659.8 11229.7 11799.7 8409.14 8172.7 8155.35 6879.36 6342.69 6867.54 1924.86
threshold=0.82045156809232977 0.32012435542158518 0.32181928706025537 0.20026280668031085 0.33503113316051231 0.3160688379151142 0.35342278462862942 0.87642251458355214 0.22703392716364632 0.7700429073687981 0.16128861871663924 0.22846756687057454
decision_type=2 2 2 2 2 2 2 2 2 2 2 2
left_child=1 2 5 4 6 -1 -2 -6 -4 -3 -11 -5
right_child=3 9 8 11 7 -7 -8 -9 -10 10 -12 -13
leaf_value=0.41434293825022195 0.18614707260874871 -0.74700576061281299 -0.45364171350872678 -0.6223141417567486 -0.13682905206699211 0.048343039133216921 -0.0087283862416902541 0.056996594873823872 0.13590993676938171 0.16933130668722143 -0.36779862472878505 -0.2263691969115979
leaf_count=1378 10112 604 978 400 6644 3378 4962 6822 442 410 3375 406
internal_value=0 -0.96443 0.458457 0.266102 0.370581 1.2431 0.978824 -0.30918 -2.15898 -2.97007 -2.48268 -3.41483
internal_count=39911 10565 6176 29346 28540 4756 15074 13466 1420 4389 3785 806
shrinkage=0.124512


Tree=33
num_leaves=15
num_cat=0
split_feature=8 6 4 4 5 4 0 3 3 5 6 5 3 7
split_gain=10153.3 18012.1 17226.1 15379.2 16912.5 13633.4 9139.7 9544.45 8935.79 8824.51 7248.06 13877.5 6684.1 3501.55
threshold=0.90745054575235595 0.38884513103444412 0.24188070325804376 0.18885389784274464 0.29998859397497957 0.15473449794502983 0.3302758382218175 0.18714173276265753 0.18344790030398464 0.31522332296832789 0.42611957918372551 0.34958569730374484 0.19810430737528981 0.34418796764960419
decision_type=2 2 2 2 2 2 2 2 2 2 2 2 2 2
left_child=1 3 12 5 -5 -1 10 8 -8 -4 11 -2 -3 -9
right_child=6 2 9 4 -6 -7 7 13 -10 -11 -12 -13 -14 -15
leaf_value=0.54640511040906903 0.80157422866104244 -0.22957643836828964 0.64064059607117063 0.47580237817606469 0.052920120611844312 -0.14592253114871695 0.027771095859868759 -0.12276282179141895 0.61185732591068998 0.010976363743562102 -0.093195895770500914 0.15834245472654035 -0.73873638267666031 -0.58336437568543886
leaf_count=466 830 8183 421 1684 11526 8036 2810 640 477 1962 586 1421 425 444
internal_value=0 -0.344443 -1.38799 0.183128 0.859119 -0.86543 0.967164 0.0559369 0.908352 0.987874 2.36582 3.18322 -2.04746 -2.51499
internal_count=39911 32703 10991 21712 13210 8502 7208 4371 3287 2383 2837 2251 8608 1084
shrinkage=0.124512


Tree=34
num_leaves=11
num_cat=0
split_feature=3 8 5 8 6 4 6 7 1 8
split_gain=20435.6 17557.1 12819.1 12024.7 9237.05 8210.14 6579.06 6161.99 5312.34 4811.63
threshold=0.18714173276265753 0.97751721952785708 0.38645324898972849 0.88907717531886832 0.38761797513495383 0.21868474714254901 0.38004843657824006 0.34041233026237339 0.33736910172110063 0.9055337869902268
decision_type=2 2 2 2 2 2 2 2 2 2
left_child=1 2 3 -1 -4 7 -7 9 -8 -2
right_child=5 -3 4 -5 -6 6 8 -9 -10 -11
leaf_value=0.0082887651777760907 -0.32597892585292593 0.68565355503908931 -0.076493175139391273 0.19570919126127795 -0.80112215410004617 0.26942509626168015 -0.31239598842400418 -0.73460103972808577 0 0.11126061962353627
leaf_count=23760 2375 657 673 6850 467 754 1501 493 1920 461
internal_value=0 0.387212 0.280802 0.403909 -3.01157 -1.44456 -0.505485 -2.61778 -1.0982 -2.04195
internal_count=39911 32407 31750 30610 1140 7504 4175 3329 3421 2836
shrinkage=0.124512


Tree=35
num_leaves=14
num_cat=0
split_feature=8 5 5 3 7 3 8 2 2 7 8 5 0
split_gain=9548.14 12858.6 11878.3 13447.9 9812.85 11104.8 9310.42 8911.84 8404.73 8161.35 6147.14 5903.2 5219.35
threshold=0.8010298652729485 0.28370433213327712 0.31292958674617105 0.17717276446911615 0.28485531396788816 0.16375858674052998 0.76097438444746868 0.17472620711605139 0.1591260716948856 0.30503387722256281 0.91033409774364438 0.34930474893148011 0.32543676138891836
decision_type=2 2 2 2 2 2 2 2 2 2 2 2 2
left_child=1 6 3 12 5 -3 -1 -5 11 -6 -10 -4 -2
right_child=2 4 8 7 9 -7 -8 -9 10 -11 -12 -13 -14
leaf_value=0.72585597675384295 0.15362784155296336 -0.49172467719090829 0.50103869350232977 0.50249265556999478 -0.58408169224752216 0.18176442436754123 -0.064844301162156351 -0.13381441654000342 -0.059161791061948965 -0.1904163274300128 0.082567214806778685 -0.027671474219717343 0.49950369463609939
leaf_count=410 1104 516 822 411 1356 1440 521 2016 20670 2112 6163 535 1835
internal_value=0 -1.16801 0.16942 1.53386 -1.75913 0.025224 2.25974 -0.20311 -0.0897713 -2.76986 -0.213152 2.33888 2.97334
internal_count=39911 6355 33556 5366 5424 1956 931 2427 28190 3468 26833 1357 2939
shrinkage=0.124512


Tree=36
num_leaves=13
num_cat=0
split_feature=7 2 8 8 3 3 6 5 8 5 1 0
split_gain=11119.9 10831.3 10195.2 13154.6 13000.3 9441.33 9048.1 10087.8 8903.3 6052.21 11401.7 4941.97
threshold=0.26541058666585771 0.16638013505003299 0.82045156809232977 0.81828549508179338 0.16319472170005178 0.16343897637904606 0.37439491622960502 0.33733309838487863 0.98559684851602924 0.32749400098768605 0.33639682103622243 0.32033651728507112
decision_type=2 2 2 2 2 2 2 2 2 2 2 2
left_child=1 5 3 4 -2 -1 7 -4 -8 10 -3 -11
right_child=2 9 6 -5 -6 -7 8 -9 -10 11 -12 -13
leaf_value=0.23990979685799632 0.29581902973026108 0.60079492718109528 0.26284582409315432 -0.76488361122078008 -0.15011910556893554 1.042506755671688 -0.042129116016408938 0.012825707837041551 0.4796358482899975 0.25494173978988505 -0.22766676331008845 -0.27321290930334524
leaf_count=537 1174 706 4432 472 7368 405 16844 5797 523 405 402 846
internal_value=0 1.84342 -0.0736153 -0.997741 -0.711672 4.71409 0.227699 0.9745 -0.211296 0.690736 2.39761 -0.809039
internal_count=39911 3301 36610 9014 8542 942 27596 10229 17367 2359 1108 1251
shrinkage=0.124512


Tree=37
num_leaves=8
num_cat=0
split_feature=5 4 8 3 8 3 4
split_gain=9549.28 9393.24 9137.25 12221.1 6580.94 6566.73 6409.56
threshold=0.27582258059373732 0.23620751769642945 0.80210080674003192 0.17454659183542334 0.8220367463739342 0.19133094481043986 0.17563953801382384
decision_type=2 2 2 2 2 2 2
left_child=-1 2 6 -4 -3 -6 -2
right_child=1 4 3 -5 5 -7 -8
leaf_value=0.44651832776984068 -0.4328261414890574 0.46401045774556904 0.079213434658080256 -0.089699827836586518 0.13762787403270776 -0.19828591374232654 -0.11757048056649454
leaf_count=693 1313 753 11670 15427 4582 1122 4351
internal_value=0 -0.160082 -0.377801 -0.135603 0.942241 0.572034 -1.53384
internal_count=39911 39218 32761 27097 6457 5704 5664
shrinkage=0.124512


Tree=38
num_leaves=12
num_cat=0
split_feature=0 5 8 6 1 1 8 5 8 7 0
split_gain=10519.7 10026.1 7516.35 9573.7 11529.6 8497.95 7212.98 14584.3 7053.26 6679.78 2882.98
threshold=0.32879955584914083 0.39701997179238707 0.78053869302639445 0.38841651062028643 0.34770165494860084 0.29501761114520625 0.87785676745605656 0.33227772449824672 0.7700429073687981 0.25939675471789808 0.31677616154350935
decision_type=2 2 2 2 2 2 2 2 2 2 2
left_child=2 6 8 4 -4 -5 9 -8 10 -2 -1
right_child=1 -3 3 5 -6 -7 7 -9 -10 -11 -12
leaf_value=0.14862776342953299 0.21555168232063621 -0.57589872341799864 0.22505443100038669 0.46888710518890836 -0.15326633291162975 -0.073727031585140865 0.36888537378846825 -0.04418151276071744 -0.57399009891632913 -0.127369524323585 -0.25828500928436421
leaf_count=672 942 580 8254 486 1467 5668 1692 6111 510 13076 453
internal_value=0 -0.517103 0.517915 0.728964 1.34742 -0.245533 -0.407221 0.362604 -1.52208 -0.836808 -0.108924
internal_count=39911 22401 17510 15875 9721 6154 21821 7803 1635 14018 1125
shrinkage=0.124512


Tree=39
num_leaves=13
num_cat=0
split_feature=5 8 0 0 6 2 7 0 0 8 5 1
split_gain=7402.19 11432.7 10700 13168.8 12088.1 15583.4 10119.9 8300.31 12182.1 6439.94 5687.98 4970.78
threshold=0.31199750978900093 0.8010298652729485 0.34385085422632183 0.34001090540490025 0.35217167405107125 0.17436198535296152 0.2672931350067001 0.32767782323001765 0.32632538569827896 0.95454001048303316 0.34757250750743812 0.31169733352214329
decision_type=2 2 2 2 2 2 2 2 2 2 2 2
left_child=2 10 3 6 -4 -6 -1 8 -3 -9 11 -2
right_child=1 7 4 -5 5 -7 -8 9 -10 -11 -12 -13
leaf_value=0.50366221813752188 0.1218507090602625 0.049479774824771908 0.8050255237944407 -0.58156151570725034 -0.42470529931462159 0.39407859351058122 0.0098049762286393904 -0.076109100037747013 0.56847917529585135 0.2149762841187447 -0.60820728902315113 -0.27749974035905206
leaf_count=746 658 10973 622 515 498 1295 4770 15459 751 1275 571 1778
internal_value=0 -0.175962 0.87904 0.163794 2.65902 1.33018 0.617889 0.0195468 0.665677 -0.432242 -2.03123 -1.3562
internal_count=39911 31465 8446 6031 2415 1793 5516 28458 11724 16734 3007 2436
shrinkage=0.124512


Tree=40
num_leaves=14
num_cat=0
split_feature=5 8 1 5 5 7 4 4 2 6 8 4 8
split_gain=9976.82 9148.59 14896.1 11107.6 10907.3 10802.5 12979.9 8580.85 8962.71 4633.79 7781.02 7440.75 3845.8
threshold=0.34894159612097481 0.8408157180991892 0.33713826270282049 0.34611081326333709 0.31522332296832789 0.24558626536943803 0.17124567171614127 0.23620751769642945 0.17214868383135601 0.37384179117650657 0.83455229232781625 0.17967505394167824 0.94681160475698156
decision_type=2 2 2 2 2 2 2 2 2 2 2 2 2
left_child=1 5 4 -4 -3 -1 -7 9 -9 11 -11 -2 -10
right_child=7 2 3 -5 -6 6 -8 8 12 10 -12 -13 -14
leaf_value=0.5560802525592623 -0.30550678043250662 0.52387134479426278 -0.072113008308199097 0.59016255561019437 0.16541493728777315 -0.36917539364279162 0.011134332141546605 0.64891700893610949 -0.054414570097632446 -0.63499461148896075 -0.15623509782546061 0.042492987939259451 0.32731378197529831
leaf_count=499 1273 1702 5184 425 5970 1581 11611 416 1988 604 4359 3783 516
internal_value=0 0.471359 1.06312 -0.173467 1.96914 -0.101582 -0.275496 -0.59716 0.909492 -1.03777 -1.72576 -0.359461 0.188757
internal_count=39911 26972 13281 5609 7672 13691 13192 12939 2920 10019 4963 5056 2504
shrinkage=0.124512


Tree=41
num_leaves=14
num_cat=0
split_feature=8 0 6 5 4 0 7 4 6 5 0 8 8
split_gain=7827.31 15571.7 12225.5 12932.8 11855.2 12239 10553.8 7837.01 8968.71 7445.91 7079.92 5189.1 3388.67
threshold=0.77918355646575477 0.34274272576641412 0.37439491622960502 0.29484223355104272 0.18731210281617669 0.31870287362127314 0.29757811046464389 0.23407733603709738 0.46594108292598119 0.30289799687341562 0.32944847031094099 0.76097438444746868 0.94681160475698156
decision_type=2 2 2 2 2 2 2 2 2 2 2 2 2
left_child=1 4 3 10 11 -6 -5 8 -4 -3 -2 -1 -9
right_child=2 9 7 6 5 -7 -8 12 -10 -11 -12 -13 -14
leaf_value=-0.96304991982396415 0.90664487824031825 0.62332089730876006 -0.097808006773249856 -0.010673529102805838 0.30745247465844217 -0.46081611957679758 0.21532406712837227 0.015529567735513597 -0.69656754215845784 -0.12014882147519156 0.20103325879294248 -0.38884519543021873 0.28404101684860528
leaf_count=527 431 425 13563 11024 576 725 4514 5520 401 405 470 484 846
internal_value=0 -1.6317 0.013445 0.655362 -2.96868 -0.957663 0.440615 -0.504877 -0.924703 2.07445 4.34209 -5.5417 0.413668
internal_count=39911 3142 36769 16439 2312 1301 15538 20330 13964 830 901 1011 6366
shrinkage=0.124512


Tree=42
num_leaves=13
num_cat=0
split_feature=6 3 4 5 8 4 5 4 4 2 2 5
split_gain=8717.59 11954.3 11347.7 21918.6 9686.52 8328.31 7675.71 7622.91 6281.35 5986.51 7875.97 4516.63
threshold=0.38421047658068336 0.16160903852140279 0.16665561859775957 0.28677923553312717 0.97751721952785708 0.19145836350899778 0.38645324898972849 0.15850712438826278 0.18612722187170772 0.15995598142699749 0.16303768851067005 0.31836725387614906
decision_type=2 2 2 2 2 2 2 2 2 2 2 2
left_child=1 9 7 -4 5 8 -7 -3 -2 11 -11 -1
right_child=4 2 3 -5 -6 6 -8 -9 -10 10 -12 -13
leaf_value=0.41281887406596085 -0.17247287646758827 0.050779616005045859 0.68206895355579644 0.023230018246520587 0.42901260515553957 -0.030858575609083498 -0.42760254024271099 -0.48606862293284081 -0.7360559024695057 0.92766530344737819 0.29158011406279349 -0.10897342767769749
leaf_count=403 874 656 820 17687 603 14211 801 1072 484 414 1179 707
internal_value=0 0.456983 0.192213 0.421828 -0.488836 -0.634679 -0.418854 -2.2583 -3.00946 2.43353 3.67888 0.632773
internal_count=39911 22938 20235 18507 16973 16370 15012 1728 1358 2703 1593 1110
shrinkage=0.124512


Tree=43
num_leaves=8
num_cat=0
split_feature=4 4 6 4 2 8 6
split_gain=8984.89 9579.94 14628.1 15204.2 12535.7 15232.6 11584.1
threshold=0.15473449794502983 0.17124567171614127 0.35612904618574365 0.21050228623578685 0.16037379034678409 0.7819156516053386 0.36578130352974375
decision_type=2 2 2 2 2 2 2
left_child=-1 4 3 -3 -2 -6 -4
right_child=1 2 6 -5 5 -7 -8
leaf_value=0.51107947449192992 0.39595399944197218 0.068328857917200211 -0.24955832852983231 0.49574844836683413 -1.0176787788379558 -0.19564369516009769 -0.0080046387091341781
leaf_count=516 425 7112 3533 1582 422 2106 24215
internal_value=0 -0.0975506 0.0424995 1.17514 -1.83094 -2.67931 -0.31184
internal_count=39911 39395 36442 8694 2953 2528 27748
shrinkage=0.124512


Tree=44
num_leaves=9
num_cat=0
split_feature=5 5 2 4 4 6 7 2
split_gain=8134.93 6819.67 8201.91 10088.9 6802.37 15239.2 13402.9 6500.85
threshold=0.40640716722818809 0.30114494257159613 0.18280910065358633 0.1693945795351986 0.21275993809700186 0.35008381214213374 0.37645682233839223 0.18646325601984001
decision_type=2 2 2 2 2 2 2 2
left_child=1 2 3 -1 6 -6 -3 -4
right_child=-2 4 7 -5 5 -7 -8 -9
leaf_value=-0.25977017465431435 -0.49048839235098352 -0.032589701416232547 -0.52663330141076736 0.33938296583132532 0.59114652010531799 0.034061381559500184 -0.75381027547786028 0.10377489041637722
leaf_count=505 488 18445 413 3062 803 15135 409 651
internal_value=0 0.170513 1.31145 2.04024 0.0182171 0.499922 -0.388191 -1.11771
internal_count=39911 39423 4631 3567 34792 15938 18854 1064
shrinkage=0.124512


Tree=45
num_leaves=9
num_cat=0
split_feature=7 4 6 0 8 1 4 4
split_gain=7651.32 8431.73 10765.9 10512.1 10539.6 9906.66 8516.13 6464.73
threshold=0.43109022159766303 0.20832406568006875 0.35008381214213374 0.33207691726882066 0.78604782922001826 0.32846256320043543 0.19855316961017225 0.20938178701823804
decision_type=2 2 2 2 2 2 2 2
left_child=1 3 5 4 -1 -3 -5 -4
right_child=-2 2 7 6 -6 -7 -8 -9
leaf_value=-0.25837456924566915 -0.49143292167724795 0.024037590509514227 0.49202078551672829 -0.088579394834891759 0.085475196607313619 0.74593428660868011 -0.36418441280291008 0.018615374848829358
leaf_count=1655 506 551 460 7586 8395 649 2271 17838
internal_value=0 -0.0301082 0.437179 -0.488548 0.230222 3.34122 -1.22291 0.245909
internal_count=39911 39405 19498 19907 10050 1200 9857 18298
shrinkage=0.124512


Tree=46
num_leaves=9
num_cat=0
split_feature=5 8 4 5 5 6 8 7
split_gain=7291.18 6819.23 7837.92 7215.61 6398.36 7055.61 6986.45 4879.15
threshold=0.2781854832083856 0.78604782922001826 0.21504754783452421 0.33676684529217299 0.39259972399595638 0.39236211748686761 0.94681160475698156 0.29878044372011003
decision_type=2 2 2 2 2 2 2 2
left_child=7 2 3 -2 6 -6 -3 -1
right_child=1 4 -4 -5 5 -7 -8 -9
leaf_value=0.68577113013254254 -0.17367661308483467 0.018486989546099737 0.20010508233991436 -0.74922097258578879 0.0318388118185602 -0.54774491629899036 0.26118408657827219 0.080585725071227174
leaf_count=409 2317 32373 728 400 662 632 1955 435
internal_value=0 0.0467851 -1.29719 -2.0809 0.177182 -2.00617 0.259921 3.02036
internal_count=39911 39067 3445 2717 35622 1294 34328 844
shrinkage=0.124512


Tree=47
num_leaves=10
num_cat=0
split_feature=4 8 4 8 4 4 8 1 0
split_gain=9021.05 10905.9 5730.95 5935.7 8810.44 8152.48 4540.83 7566.26 3446.54
threshold=0.24740403829417909 0.83510689297633023 0.15473449794502983 0.90745054575235595 0.23911635841178622 0.17124567171614127 0.91364149068897482 0.33430947315888138 0.34636981968850339
decision_type=2 2 2 2 2 2 2 2 2
left_child=2 -2 -1 5 -5 -4 8 -8 -3
right_child=1 6 3 4 -6 -7 7 -9 -10
leaf_value=0.39113011559739203 0.75180335339272542 0.35654890690352542 -0.25862040122626134 0.13671990493007977 -0.3479094977969408 -0.031872911699620803 -0.5022041971422998 0.18079414616300529 -0.02691634613853355
leaf_count=509 468 1084 2707 5329 652 27597 434 595 536
internal_value=0 1.58085 -0.191836 -0.239006 0.671241 -0.419154 0.787737 -0.846975 1.83534
internal_count=39911 3117 36794 36285 5981 30304 2649 1029 1620
shrinkage=0.124512


Tree=48
num_leaves=6
num_cat=0
split_feature=5 3 8 7 8
split_gain=6116.7 5130.57 5520.44 6858.67 1324.4
threshold=0.40251697800027375 0.20026280668031085 0.97751721952785708 0.414736362495077 0.87445984351524775
decision_type=2 2 2 2 2
left_child=1 2 3 -1 -3
right_child=-2 4 -4 -5 -6
leaf_value=0.0070196273255365782 -0.38904541714508828 -0.13528815140640352 0.35430816330945814 -0.3799717990679819 -0.45859089290230587
leaf_count=37015 640 401 694 725 436
internal_value=0 -0.00489895 0.0481126 -0.00293258 -2.45705
internal_count=39911 39271 38434 37740 837
shrinkage=0.124512


Tree=49
num_leaves=14
num_cat=0
split_feature=0 4 1 6 8 1 1 8 2 8 1 6 8
split_gain=6137.57 9823.4 10295.7 8421.84 7859.56 7558.87 8448.64 7690.72 6775.91 5732.37 5337.35 5300.85 3576.08
threshold=0.32803326437731845 0.21868474714254901 0.36508851199416553 0.43040070004963621 0.8785433245079729 0.34971179563241911 0.34487446058428239 0.81234526030912868 0.17157104137304804 0.88481600868396593 0.30265830560254842 0.38841651062028643 0.85692825915540016
decision_type=2 2 2 2 2 2 2 2 2 2 2 2 2
left_child=5 3 10 4 -2 6 11 -7 -9 -4 -3 -1 -8
right_child=1 2 9 -5 -6 7 12 8 -10 -11 -12 -13 -14
leaf_value=0.12952532290904223 -0.14377704058600993 0.35842942396625177 0.80668799008113967 -0.62830063889063659 0.062618041148416584 -0.62793210989513482 0.22790557071476569 0.29523103848321419 -0.21077360244275975 0.17593479480308255 -0.010198161348898491 -0.030982792276373447 0.74852436135378353
leaf_count=8877 9675 666 414 455 4054 424 446 622 1206 508 7192 4969 403
internal_value=0 -0.290499 0.540225 -0.805781 -0.664157 0.503456 0.765707 -1.20115 -0.301799 3.70394 0.167109 0.576556 3.83282
internal_count=39911 22964 8780 14184 13729 16947 14695 2252 1828 922 7858 13846 849
shrinkage=0.124512


Tree=50
num_leaves=12
num_cat=0
split_feature=1 0 8 8 0 4 5 0 6 1 8
split_gain=6719.12 21928.4 11202.1 10059.9 9846.49 7764.24 7654.56 6262.57 4542.66 4224.52 3845.69
threshold=0.30479269756993949 0.35902833031954634 0.82930287644717626 0.81465670594260453 0.35902833031954634 0.15679300063089743 0.36646917265553919 0.32836606366695859 0.38761797513495383 0.3015546829427706 0.9092931754902186
decision_type=2 2 2 2 2 2 2 2 2 2 2
left_child=1 2 3 -1 5 -2 8 -7 -6 -4 -8
right_child=4 -3 9 -5 6 7 10 -9 -10 -11 -12
leaf_value=0.12695429987276585 0.42583933602999341 -0.75570571181137403 0.28105331017074747 -0.56166202455645742 0.33511676931310003 -0.0012215035449792296 -0.45739232645240957 -0.11587275561630325 0.051167169179789487 0.66427383474012347 0.049125221120104604
leaf_count=1379 514 401 2209 432 2215 13966 419 15813 1476 575 512
internal_value=0 1.0163 1.63792 -0.291367 -0.224374 -0.432277 1.13499 -0.499274 1.78356 2.89831 -1.42018
internal_count=39911 4996 4595 1811 34915 30293 4622 29779 3691 2784 931
shrinkage=0.124512


Tree=51
num_leaves=12
num_cat=0
split_feature=8 7 2 1 4 1 1 1 5 6 4
split_gain=6541.02 5391.69 11590 11323.5 7697.3 5756.98 12890.5 8468.04 4100.61 6937.35 5187.84
threshold=0.94445348908478888 0.26541058666585771 0.16638013505003299 0.32146290922347437 0.19973850536741819 0.32924465684045939 0.31960252424946317 0.33073545641882535 0.36866724338871554 0.40416498493444214 0.20763424454369864
decision_type=2 2 2 2 2 2 2 2 2 2 2
left_child=1 2 3 -1 -4 6 -3 -7 9 -2 -10
right_child=8 5 4 -5 -6 7 -8 -9 10 -11 -12
leaf_value=0 0.62957013503051618 -0.010349210955403775 -0.1276542572796811 0.86944515727189509 0.46629362214478959 0.38037580996743653 -0.2461841925590495 -0.008499534963889754 -0.34004419185480739 0.056824102041124418 0.20533228960861857
leaf_count=407 644 10483 1877 543 413 915 5488 17256 413 686 786
internal_value=0 -0.178956 1.05406 3.99247 -0.158384 -0.296406 -0.734907 0.0881805 1.48384 2.695 0.127841
internal_count=39911 37382 3240 950 2290 34142 15971 18171 2529 1330 1199
shrinkage=0.124512


Tree=52
num_leaves=9
num_cat=0
split_feature=5 5 4 4 1 4 1 7
split_gain=5795.88 9288.58 8858.93 12898.7 8825.32 7439.28 4358.73 1574.84
threshold=0.32749400098768605 0.32947468669444629 0.15995557551534226 0.16493105032268718 0.3203751817912584 0.15995557551534226 0.2882230693761762 0.30684881643965839
decision_type=2 2 2 2 2 2 2 2
left_child=2 7 -1 -4 -5 -3 -7 -2
right_child=1 5 3 4 -6 6 -8 -9
leaf_value=0.53714926590855472 -0.61821246099810889 -0.53903219150799098 -0.60767953832326915 0.20533325712244929 0 -0.29324092940262741 0.0025962112793926351 -0.269618729854669
leaf_count=593 401 417 454 4790 10123 802 21865 466
internal_value=0 -0.261712 0.516799 0.36929 0.530117 -0.140278 -0.0625537 -3.47761
internal_count=39911 23951 15960 15367 14913 23084 22667 867
shrinkage=0.124512


Tree=53
num_leaves=8
num_cat=0
split_feature=0 4 8 1 5 8 0
split_gain=6774.79 5322.8 8294.5 6587.66 6239.14 10208.4 9381.82
threshold=0.28154319131397093 0.18811387775664926 0.75205460863398421 0.33974738920936581 0.33321070400273822 0.81314790752320454 0.32836606366695859
decision_type=2 2 2 2 2 2 2
left_child=-1 4 -3 -4 6 -6 -2
right_child=1 2 3 -5 5 -7 -8
leaf_value=0.37980063942371328 0.18675654115518361 0.47334695097612745 0.045497316756355842 -0.078302233418337086 -0.65008656001228449 -0.12442834701503251 -0.15060807279727104
leaf_count=680 2286 587 18263 10518 673 3999 2905
internal_value=0 -0.135218 0.0779919 0.00152556 -0.77159 -1.61069 -0.0134965
internal_count=39911 39231 29368 28781 9863 4672 5191
shrinkage=0.124512


Tree=54
num_leaves=7
num_cat=0
split_feature=5 6 1 3 6 0
split_gain=5660 5434.46 7998.37 6661.88 9101.38 5242.88
threshold=0.40640716722818809 0.30850191024065271 0.33144936117794116 0.1553750335033294 0.37150309028239253 0.36536222698703852
decision_type=2 2 2 2 2 2
left_child=1 2 -1 4 -3 -5
right_child=-2 3 -4 5 -6 -7
leaf_value=0.56733578493803793 -0.43382596297154485 -0.03341170000553443 -0.12687038739706372 -0.012739149052165057 -0.78460336130073827 0.15941830242733068
leaf_count=619 473 684 435 34313 400 2987
internal_value=0 -0.000714052 2.2412 -0.0626664 -2.50842 0.00800907
internal_count=39911 39438 1054 38384 1084 37300
shrinkage=0.124512


Tree=55
num_leaves=7
num_cat=0
split_feature=3 1 0 2 3 5
split_gain=5821.38 4649.55 4859.46 6593.98 5912 3382.78
threshold=0.20396922134798615 0.28280725991299077 0.36048832487129395 0.17423044465443918 0.15926845689956221 0.33691834651084035
decision_type=2 2 2 2 2 2
left_child=1 5 4 -4 -3 -1
right_child=-2 2 3 -5 -6 -7
leaf_value=-0.55197111353894679 -0.45037629528759593 0.19573628209214222 -0.14397069941890289 0.21258985404500369 -0.024564570365331852 -0.045713779092790452
leaf_count=405 455 2009 1052 3368 32188 434
internal_value=0 -0.0159098 0.0343633 1.02242 -0.0929051 -2.34773
internal_count=39911 39456 38617 4420 34197 839
shrinkage=0.124512


Tree=56
num_leaves=7
num_cat=0
split_feature=2 2 2 2 4 1
split_gain=4754.12 4378.75 10735 5880.31 9684.39 7722.08
threshold=0.20425138399085921 0.15621748116327802 0.15210557145645928 0.16253307474375697 0.16493105032268718 0.31938232342658457
decision_type=2 2 2 2 2 2
left_child=1 2 -1 5 -5 -3
right_child=-2 3 -4 4 -6 -7
leaf_value=0.20662014500365777 -0.39145354526414061 0.51830520517324075 -0.52931607478522336 -0.29783830021217811 0.02643651515930516 0.050130145843160598
leaf_count=537 445 843 712 1491 34296 1587
internal_value=0 0.145509 -1.69791 0.206148 0.103396 1.71322
internal_count=39911 39466 1249 38217 35787 2430
shrinkage=0.124512


Tree=57
num_leaves=8
num_cat=0
split_feature=4 4 0 1 3 3 4
split_gain=5693.26 5378.83 10224.2 9618.72 9004.9 8795.06 4735.68
threshold=0.15473449794502983 0.17124567171614127 0.30788555891910241 0.31125252603227616 0.1553750335033294 0.15881852900679064 0.19439848726461864
decision_type=2 2 2 2 2 2 2
left_child=-1 2 -2 -4 6 -6 -3
right_child=1 4 3 -5 5 -7 -8
leaf_value=0.41382328294207199 -0.72015501623506828 -0.085180774420937494 -0.57019946234282659 0.052261913831099974 0.42520817285148865 0.015639908833961096 -0.63827848970761136
leaf_count=528 432 501 473 2060 834 34604 479
internal_value=0 0.014383 -1.28164 -0.507874 0.120312 0.203446 -2.87064
internal_count=39911 39383 2965 2533 36418 35438 980
shrinkage=0.124512


Tree=58
num_leaves=13
num_cat=0
split_feature=7 8 1 1 1 5 4 2 6 5 3 8
split_gain=8904.9 8280.28 8426.2 10091.3 7800.53 9607.12 7733.71 6404.08 6081.17 5631.49 7356.44 4078.94
threshold=0.2672931350067001 0.77918355646575477 0.33176406097172834 0.3142871509479041 0.34867695432603635 0.33332692147395593 0.17056635823748734 0.17214868383135601 0.36488294461295673 0.30114494257159613 0.18160934149374877 0.97751721952785708
decision_type=2 2 2 2 2 2 2 2 2 2 2 2
left_child=4 2 3 -2 5 6 -1 -7 -4 10 -3 -11
right_child=1 9 8 -5 -6 7 -8 -9 -10 11 -12 -13
leaf_value=0.15157256745871758 -0.099127612810938959 0.29413914895508919 -0.25328379300530274 -0.77764079129742192 -0.17036702377768528 0.32496577786962716 0.690757117177902 -0.26047071838381303 0.35380300525231756 -0.022908645777150211 -0.13706462834062799 0.26114859039252158
leaf_count=716 685 2057 547 690 741 532 1010 638 481 30139 869 806
internal_value=0 -0.125922 -1.92081 -3.54165 1.51629 2.25955 3.76004 0.0331813 0.232546 0.000974428 1.32869 -0.124082
internal_count=39911 36274 2403 1375 3637 2896 1726 1170 1028 33871 2926 30945
shrinkage=0.124512


Tree=59
num_leaves=14
num_cat=0
split_feature=4 2 2 7 0 5 6 5 4 8 8 2 0
split_gain=4266.66 5878.51 7822.83 9772.31 7337.03 5659.19 7640.11 10399.2 8990.67 6465.35 5410.91 6217.69 2950.43
threshold=0.18811387775664926 0.17027686760685976 0.1676622116936699 0.27519647428818889 0.31772168251178068 0.3478627196275253 0.31848459364096865 0.28775701383638835 0.1693945795351986 0.91140127658688874 0.75205460863398421 0.17083388664408683 0.34820477780861847
decision_type=2 2 2 2 2 2 2 2 2 2 2 2 2
left_child=5 2 3 -2 -4 6 8 -8 -1 12 -3 -12 -7
right_child=1 10 4 -5 -6 9 7 -9 -10 -11 11 -13 -14
leaf_value=-0.028298903430082435 0.60791169505509013 0.44129486923760669 -0.0057592222250041 -0.017752742089257426 0.53917881932575817 -0.24660554136660218 -0.62179181300838537 -0.020975718836216829 0.63013457369063941 0.10474054671789866 -0.45687293169344634 -0.0017443654544054576 -0.6026994104437372
leaf_count=718 430 418 564 3871 1156 1624 488 5436 576 707 476 22965 482
internal_value=0 0.197806 1.0816 0.356312 2.88651 -0.55685 -0.085329 -0.568496 2.11504 -1.76141 -0.0245966 -0.0888755 -2.64226
internal_count=39911 29880 6021 4301 1720 10031 7218 5924 1294 2813 23859 23441 2106
shrinkage=0.124512


Tree=60
num_leaves=8
num_cat=0
split_feature=5 8 8 3 5 5 7
split_gain=5681.95 8869.49 7839.15 5744.73 13613.2 6490.14 5538.22
threshold=0.27582258059373732 0.80273884785728844 0.80564453051362339 0.17479804315575634 0.29484223355104272 0.29225596033382667 0.414736362495077
decision_type=2 2 2 2 2 2 2
left_child=-1 3 -3 5 -5 -2 -4
right_child=1 2 6 4 -6 -7 -8
leaf_value=0.36514023082377978 -0.61802049793800296 0.51018614513960647 0.029005843630440769 0.56957625375994203 -0.13290839683886599 -0.16286828282053431 -0.30996871452436875
leaf_count=685 600 517 31765 523 2355 2700 766
internal_value=0 0.0242211 0.230312 -1.07579 -0.0369567 -1.97724 0.168391
internal_count=39911 39226 33048 6178 2878 3300 32531
shrinkage=0.124512


Tree=61
num_leaves=11
num_cat=0
split_feature=4 5 8 7 7 2 1 1 7 8
split_gain=5843.08 9349.88 9482.22 12277.6 8952.36 5468.52 5341.82 4691.88 4619.34 4354.16
threshold=0.20832406568006875 0.36743401516135304 0.8585858750245654 0.29959611137024128 0.33719981591612164 0.17171039985442851 0.37495761092095703 0.29063310222066546 0.32567576343228261 0.89774917220969319
decision_type=2 2 2 2 2 2 2 2 2 2
left_child=1 2 4 -4 -1 -3 7 -2 -9 -7
right_child=6 5 3 -5 -6 9 -8 8 -10 -11
leaf_value=-0.056096374098688326 0.33731801615725415 -0.56815569319808168 -0.077860807040142935 0.28995486276490179 -0.47258582190183751 -0.34309215606942978 0.37968973758135116 -0.047602039536747798 0.076542581547548463 0.045268579105408768
leaf_count=10863 730 732 2751 2872 867 955 693 9222 9394 832
internal_value=0 -0.44868 -0.186249 0.880821 -0.699049 -2.25057 0.317139 0.218489 0.120017 -1.29492
internal_count=39911 19872 17353 5623 11730 2519 20039 19346 18616 1787
shrinkage=0.124512


Tree=62
num_leaves=12
num_cat=0
split_feature=6 7 1 6 8 6 0 8 0 2 3
split_gain=6489.76 6863.95 7497.77 6218.37 10533.8 8482.44 6130.7 4663.02 7152.16 5154.07 3706.81
threshold=0.3368258410924545 0.27965081498322014 0.34867695432603635 0.34302853256248367 0.80210080674003192 0.34057476947997151 0.30607106736925899 0.97751721952785708 0.3413411774538318 0.15621748116327802 0.17544823757759168
decision_type=2 2 2 2 2 2 2 2 2 2 2
left_child=1 2 6 4 -2 -6 -1 9 -9 -5 -4
right_child=3 -3 10 7 5 -7 -8 8 -10 -11 -12
leaf_value=-0.18938644885711692 -0.80092771947759944 0.59431217339805686 -0.45080392019295934 -0.34453887303074943 0.17397458043327532 -0.47119241314570037 0.23123811628290483 0.65682397282263516 -0.081012929645306833 -0.0089472313710500205 0.037425720378269772
leaf_count=641 413 448 525 728 803 520 3225 405 403 31364 436
internal_value=0 1.02047 0.669073 -0.171108 -2.01757 -0.628007 1.29316 -0.0732217 2.30105 -0.133468 -1.82596
internal_count=39911 5275 4827 34636 1736 1323 3866 32900 808 32092 961
shrinkage=0.124512


Tree=63
num_leaves=14
num_cat=0
split_feature=4 0 6 0 5 6 1 0 7 1 5 0 5
split_gain=4270.64 12503.3 11522.9 16680.5 12542.5 8224.32 8560.06 7320.53 6872.79 6462.58 6219.69 5294.7 4013.53
threshold=0.18206140145860372 0.30455155417650598 0.35648819635942991 0.30607106736925899 0.33347965276623287 0.36400229393865496 0.3142871509479041 0.31738219069597717 0.27737116124622035 0.30793571861781027 0.39086995846602768 0.31252351450734128 0.32051423479370855
decision_type=2 2 2 2 2 2 2 2 2 2 2 2 2
left_child=1 8 3 4 -2 6 -4 12 -1 -9 -7 -5 -3
right_child=2 7 5 11 -6 10 -8 9 -10 -11 -12 -13 -14
leaf_value=-0.89283330058735189 1.1578947153671237 0.57838302040384582 0.22043696960624454 -0.3111950620971628 0.2127954487934399 0.033222142373050538 -0.35851136994367122 -0.42211381706052287 -0.18204832284205646 -0.017950119196266909 -0.27784101398597955 0.1401808805699099 0.085963216611304266
leaf_count=403 442 433 507 437 441 22842 1765 707 461 4783 1043 4986 661
internal_value=0 -0.563569 0.276721 1.4907 5.52556 -0.0153742 -1.83514 -0.0916835 -4.14215 -0.564915 0.157099 0.830954 2.26941
internal_count=39911 7448 32463 6306 883 26157 2272 6584 864 5490 23885 5423 1094
shrinkage=0.124512


Tree=64
num_leaves=16
num_cat=0
split_feature=6 4 1 8 8 7 1 1 0 0 8 1 3 1 4
split_gain=8138.54 12997.9 17387.7 11152 10566.6 9597.69 7938.2 7935.27 7816.9 13193.5 10549.3 5297.16 15813.1 5514.42 4429.59
threshold=0.40230251517130949 0.21208205633364105 0.30479269756993949 0.86676896053265817 0.87243800151138851 0.32567576343228261 0.33974738920936581 0.32778499328661187 0.33979285242954044 0.33837393655352815 0.7819156516053386 0.33430947315888138 0.17203588454577454 0.32608124921588122 0.20044180246319579
decision_type=2 2 2 2 2 2 2 2 2 2 2 2 2 2 2
left_child=5 3 4 14 -3 8 -5 -4 9 -1 -10 13 -13 -7 -2
right_child=1 2 7 6 -6 11 -8 -9 10 -11 -12 12 -14 -15 -16
leaf_value=0.034906142136889425 -0.39987796471946951 0.97405689031085652 -0.27791235130025549 0.2078613254603443 0.094482213898367876 0.23681771712162253 -0.48216191592971896 0.0027493894229195094 0.32416729640222225 0.64190908162014759 -0.12835785518343154 -0.60925046434473684 0.28537517800425666 0.72427931069115103 -0.89159622232326141
leaf_count=16132 647 400 2299 640 462 1384 433 4850 880 576 8550 410 1210 498 540
internal_value=0 -0.786931 -0.187185 -2.90621 4.05428 0.246636 -0.552969 -0.700703 0.0376468 0.449308 -0.690141 1.80219 0.464252 2.9459 -5.02081
internal_count=39911 10271 8011 2260 862 29640 1073 7149 26138 16708 9430 3502 1620 1882 1187
shrinkage=0.124512


Tree=65
num_leaves=9
num_cat=0
split_feature=2 6 4 7 2 3 3 1
split_gain=5207.72 4222.54 8334.74 8334.54 6910.54 6406.64 4872.26 3824.92
threshold=0.15210557145645928 0.38461599705928945 0.18811387775664926 0.31732925796482619 0.1888338949759498 0.17169593867410596 0.18222923307688596 0.3244502248854258
decision_type=2 2 2 2 2 2 2 2
left_child=-1 2 4 6 -2 -4 -3 -5
right_child=1 3 5 7 -6 -7 -8 -9
leaf_value=0.40408768240396453 -0.079557726861469835 -0.081604690779837369 0.22923946928271713 -0.094374111812986952 0.41001212047505448 0.044793631537579238 -0.5075668380069287 0.035920187522293118
leaf_count=517 8383 817 4235 5541 472 9566 879 9501
internal_value=0 0.0468051 0.328893 -0.334124 -0.427681 0.815413 -2.43731 -0.0959909
internal_count=39911 39394 22656 16738 8855 13801 1696 15042
shrinkage=0.124512


Tree=66
num_leaves=11
num_cat=0
split_feature=5 2 3 0 5 7 7 3 3 5
split_gain=4552.94 8278.85 10414.8 8699.01 7204.63 6461.94 5930.98 6852.69 5704.44 4189.08
threshold=0.33704178862525608 0.15621748116327802 0.15834555270990205 0.30702514254736274 0.33902891238426275 0.29595816215958937 0.28906273326396176 0.16698585310265637 0.17275124565340441 0.3375141019888
decision_type=2 2 2 2 2 2 2 2 2 2
left_child=1 -1 5 -4 9 -3 8 -8 -6 -2
right_child=4 2 3 -5 6 -7 7 -9 -10 -11
leaf_value=-0.38389003171098146 -0.11209622995907072 0.14412746530812526 0.24492552448908361 -0.0033264924268180183 -0.34116758634198796 0.83714839262718344 0.21853237073910708 -0.030486044321882302 -0.03682345909647293 -0.61710074272486981
leaf_count=714 514 450 2515 16898 1689 403 2003 11954 2242 529
internal_value=0 0.263339 0.381981 0.230813 -0.41371 3.80475 -0.263717 0.0410992 -1.34978 -2.97178
internal_count=39911 20980 20266 19413 18931 853 17888 13957 3931 1043
shrinkage=0.124512


Tree=67
num_leaves=7
num_cat=0
split_feature=0 4 2 4 2 3
split_gain=6990.33 4636.5 3915.55 3757.12 6493.51 5483.42
threshold=0.28458218873720587 0.15473449794502983 0.16999331260633521 0.23407733603709738 0.19426182411228002 0.20026280668031085
decision_type=2 2 2 2 2 2
left_child=2 -2 -1 5 -5 -3
right_child=1 3 -4 4 -6 -7
leaf_value=0.62928521611994037 0.36542327902994653 -0.031534098353671165 0.091518285843412067 0.11074235908037745 -0.22485287516567423 -0.42995287020409695
leaf_count=401 491 30846 463 6117 1046 547
internal_value=0 -0.120582 2.75692 -0.159882 0.493732 -0.309495
internal_count=39911 39047 864 38556 7163 31393
shrinkage=0.124512


Tree=68
num_leaves=7
num_cat=0
split_feature=2 3 8 8 8 0
split_gain=4180.56 4367.08 10964 3773.88 7983.08 6888.36
threshold=0.15210557145645928 0.1553750335033294 0.82607399974147377 0.8010298652729485 0.8047088397429164 0.29552793662060511
decision_type=2 2 2 2 2 2
left_child=-1 2 -2 5 -5 -3
right_child=1 3 -4 4 -6 -7
leaf_value=0.34418238623575903 0.20599731977676447 -0.57637851442703836 -0.65628311655798721 0.43569452526445712 0.0032404470740539154 -0.057850634259574124
leaf_count=522 403 430 522 677 31801 5556
internal_value=0 -0.0874608 -2.23746 -0.0353667 0.0988857 -0.76628
internal_count=39911 39389 925 38464 32478 5986
shrinkage=0.124512


Tree=69
num_leaves=12
num_cat=0
split_feature=6 7 4 0 7 4 3 4 5 5 5
split_gain=5058.17 8828.84 8037.09 7967.61 9431.66 7784.88 7864.08 7732.76 7437.3 4325.75 2504.11
threshold=0.35612904618574365 0.27965081498322014 0.15995557551534226 0.28154319131397093 0.28698509812742473 0.18811387775664926 0.1761272552767901 0.16493105032268718 0.28220490191096032 0.35771199472858967 0.32961987168003654
decision_type=2 2 2 2 2 2 2 2 2 2 2
left_child=1 2 -1 -2 10 9 -7 -4 -6 -3 -5
right_child=3 5 7 4 8 6 -8 -9 -10 -11 -12
leaf_value=0.34947011894288066 0.46059894306408755 0.10723172411436574 -0.55498422957235338 -0.69201959242076372 -0.42411999289376096 0.56088798966366804 0.1020812385226238 -0.037886881763137072 -0.0254972521215799 -0.34143650425210814 -0.24155540131283448
leaf_count=760 484 1788 490 403 748 1268 1090 5523 26547 410 400
internal_value=0 0.466912 -0.25565 -0.323264 -0.393088 1.54437 2.80772 -0.645208 -0.293062 0.182236 -3.77439
internal_count=39911 11329 6773 28582 28098 4556 2358 6013 27295 2198 803
shrinkage=0.124512


Tree=70
num_leaves=12
num_cat=0
split_feature=8 0 5 7 0 4 4 5 0 3 0
split_gain=6532.39 13520.4 7823.77 5101.71 4392.18 14092.7 8362.43 7042.88 5886.88 5924.04 5129.23
threshold=0.77918355646575477 0.34416376245847818 0.29031418957660765 0.28577514010341992 0.31622776601683805 0.20170114448483106 0.20763424454369864 0.30289799687341562 0.32364997780970667 0.17948835957080703 0.32767782323001765
decision_type=2 2 2 2 2 2 2 2 2 2 2
left_child=1 2 -1 -4 5 7 -7 -2 9 -6 -10
right_child=4 -3 3 -5 8 6 -8 -9 10 -11 -12
leaf_value=-0.69069261834390516 0.78370617497600126 0.27974199247268433 0.059583488568875194 -0.37219258826043838 -0.01758943660088267 -0.41410900262260875 0.031396606261679436 0.22567196963475966 0.18404390075362265 -0.32063131446340826 -0.0037128160348237891
leaf_count=646 403 771 759 948 2406 766 4444 2957 2523 1734 21554
internal_value=0 -1.37864 -2.57292 -1.43853 0.128726 0.756592 -0.271022 2.35447 -0.0614361 -1.16428 0.127574
internal_count=39911 3124 2353 1707 36787 8570 5210 3360 28217 4140 24077
shrinkage=0.124512


Tree=71
num_leaves=13
num_cat=0
split_feature=8 4 5 1 5 7 4 5 0 2 1 1
split_gain=4330.97 7894.3 6439.78 10363.7 6715.12 4063.8 3733.63 8118.77 4127.26 10738.3 5346.71 1964.11
threshold=0.85787706734574976 0.17358651587299823 0.31481035831790155 0.33477490740224264 0.31836725387614906 0.28995381598622311 0.24432169903445686 0.32704750425062568 0.36048832487129395 0.17436198535296152 0.30324226858532782 0.33453597991500605
decision_type=2 2 2 2 2 2 2 2 2 2 2 2
left_child=6 5 3 -3 -4 11 8 -8 10 -10 -1 -2
right_child=1 2 4 -5 -6 -7 7 -9 9 -11 -12 -13
leaf_value=0.1230731859649136 0.37536535931397957 0.57167877253663968 -0.4517016037653076 -0.072714166496998023 0.031131327102145223 0.64172650889526905 0.61741708072022616 -0.066827732240047011 -0.33531266148667693 0.34010534680565163 -0.077295007282256203 -0.008117787143034301
leaf_count=2381 412 862 460 695 15789 494 442 678 508 1285 15503 402
internal_value=0 0.501867 0.32662 2.2716 0.139326 2.87607 -0.157992 1.61862 -0.259877 1.18625 -0.405701 1.47524
internal_count=39911 19114 17806 1557 16249 1308 20797 1120 19677 1793 17884 814
shrinkage=0.124512


Tree=72
num_leaves=9
num_cat=0
split_feature=6 5 7 8 4 5 7 4
split_gain=4903.44 4139.19 6542.36 5542.38 6885.95 6300.64 5274.96 4117.26
threshold=0.30571869649607042 0.34342812071380463 0.25939675471789808 0.89372067015003587 0.24740403829417909 0.32355596957138683 0.26890749631014926 0.1693945795351986
decision_type=2 2 2 2 2 2 2 2
left_child=7 3 -3 4 -2 -5 -4 -1
right_child=1 2 6 5 -6 -7 -8 -9
leaf_value=0.022020901473462449 -0.013005440395556142 -0.54921937902426377 0.33817096919035872 0.4558577893656689 0.33943314003369701 0.061530227219515531 -0.058498709613368921 0.56601987000014775
leaf_count=450 19700 410 539 920 900 2036 14526 430
internal_value=0 -0.0606969 -0.463282 0.203142 0.0184858 1.48492 -0.354847 2.32879
internal_count=39911 39031 15475 23556 20600 2956 15065 880
shrinkage=0.124512


Tree=73
num_leaves=11
num_cat=0
split_feature=4 8 6 4 5 1 8 1 2 2
split_gain=4410.47 7500.46 7346.57 6923.7 6995.33 6135.16 7837.35 6965.78 5859.64 5819.55
threshold=0.25004040917278308 0.8408157180991892 0.4375434243182636 0.25659888766591826 0.34894159612097481 0.34770165494860084 0.84756970089098671 0.34363285258596415 0.17525692601098627 0.18600462993297937
decision_type=2 2 2 2 2 2 2 2 2 2
left_child=2 -2 5 -3 -5 7 -7 -1 -4 -10
right_child=1 3 8 4 -6 6 -8 -9 9 -11
leaf_value=0.022154686985625938 0.64121803175435521 0.36301128798267462 -0.55810495296212281 -0.47331762020326507 0.11567474943970754 0.065627716007954903 -0.18055230023541077 0.26589146590674523 0.15048978237257546 -0.33553580002905792
leaf_count=24912 431 788 600 497 838 3330 5023 1967 747 778
internal_value=0 1.33956 -0.0200385 0.558942 -0.8208 0.0885431 -0.660074 0.321744 -1.82735 -0.772926
internal_count=39911 2554 37357 2123 1335 35232 8353 26879 2125 1525
shrinkage=0.124512


Tree=74
num_leaves=7
num_cat=0
split_feature=5 4 1 7 0 6
split_gain=4260.56 4511.17 8870.3 5918.32 9797.69 4743.31
threshold=0.27582258059373732 0.15995557551534226 0.32091034891550929 0.28114795981467228 0.29966008406677075 0.38118554810713062
decision_type=2 2 2 2 2 2
left_child=-1 2 -2 4 -3 -5
right_child=1 3 -4 5 -6 -7
leaf_value=0.31669451814771699 -0.18819247748976284 0.39019221012628225 0.55809193584664274 0.074828504974073271 -0.15719283451855448 -0.022413553238247057
leaf_count=692 405 553 623 13794 5968 17876
internal_value=0 0.0366101 2.10633 -0.0187085 -0.88736 0.159677
internal_count=39911 39219 1028 38191 6521 31670
shrinkage=0.124512


Tree=75
num_leaves=10
num_cat=0
split_feature=8 7 2 4 2 2 8 8 3
split_gain=4191.44 7098.04 11297.1 6899.4 5237.56 8658.43 4281.71 3666.78 3314.6
threshold=0.80273884785728844 0.28166557637072914 0.17938262880551112 0.16704029044005822 0.1649288317731066 0.1705386042561369 0.80564453051362339 0.80841825804862022 0.20026280668031085
decision_type=2 2 2 2 2 2 2 2 2
left_child=1 2 3 -1 -3 -6 -2 -8 -9
right_child=6 4 -4 -5 5 -7 7 8 -10
leaf_value=0.33584113623718748 0.36846371847178067 -0.50706179426497289 0.65203601235308861 -0.2106973623803623 0.29098549455912337 -0.20781310030531652 -0.31338081515704796 0.023409582158164032 -0.22952494194672379
leaf_count=506 531 654 447 1224 646 3229 531 31317 826
internal_value=0 -0.729724 0.75076 -0.399667 -1.44467 -0.99731 0.138088 0.0917805 0.135342
internal_count=39911 6706 2177 1730 4529 3875 33205 32674 32143
shrinkage=0.124512


Tree=76
num_leaves=13
num_cat=0
split_feature=0 4 5 5 2 3 1 3 2 1 5 7
split_gain=5540.65 6719.47 16165.9 11535.2 9457.85 6629.23 7160.93 7046.37 4168.07 4132.6 6067.96 5446.03
threshold=0.33922958529618613 0.20832406568006875 0.31080755307792679 0.3169252870093946 0.18646325601984001 0.16189960773068116 0.32638678630054935 0.1651912017170131 0.19981976461144471 0.32884562217464769 0.35295136271447197 0.34550368184599956
decision_type=2 2 2 2 2 2 2 2 2 2 2 2
left_child=8 5 4 -4 -3 6 -2 -7 9 10 -1 -11
right_child=1 2 3 -5 -6 7 -8 -9 -10 11 -12 -13
leaf_value=0.022187486313206828 0.53414352854786673 0.65957667564553746 -0.6584852724888961 -0.018336074973626371 -0.060749072774142467 -0.58874696529637882 -0.14583434031074965 -0.15324887790907379 0.39663438549073626 0.11514311283332473 -0.17696246995975839 -0.11902048902961286
leaf_count=9695 427 851 471 6127 417 645 544 5827 471 9457 3143 1836
internal_value=0 -0.533068 0.110141 -0.51655 3.38293 -1.21485 1.21486 -1.5817 0.233778 0.175543 -0.212213 0.617676
internal_count=39911 15309 7866 6598 1268 7443 971 6472 24602 24131 12838 11293
shrinkage=0.124512


Tree=77
num_leaves=9
num_cat=0
split_feature=5 2 6 2 6 3 0 0
split_gain=3889.97 4239.68 3302.69 11757.8 5013.92 6737.14 4789.34 3584.53
threshold=0.39980802466483506 0.18259116139117262 0.46594108292598119 0.18790370340761262 0.43454729863516089 0.18796886057092241 0.36536222698703852 0.32862674234061895
decision_type=2 2 2 2 2 2 2 2
left_child=2 -2 4 7 6 -6 -1 -4
right_child=1 -3 3 -5 5 -7 -8 -9
leaf_value=-0.021601910280877268 -0.56816263859392635 0 -0.20201340127002979 0.33305756742005987 0.32701155160822837 -0.17779793443873013 0.14906074229621832 -0.72510631009358595
leaf_count=33000 401 403 410 420 1521 557 2768 431
internal_value=0 -2.25808 -0.0323198 -1.62705 0.0204192 1.53239 -0.067002 -3.79332
internal_count=39911 804 39107 1261 37846 2078 35768 841
shrinkage=0.124512


Tree=78
num_leaves=13
num_cat=0
split_feature=8 0 2 0 0 8 2 2 2 8 8 4
split_gain=4794.91 10745.2 10673.9 8572.51 5353.1 5854.86 4783.77 11425.8 7599.8 6537.2 9687.06 4190.1
threshold=0.8010298652729485 0.32395327369802501 0.16505171533402596 0.32862674234061895 0.32007369158700932 0.77395809127270765 0.16870444028900114 0.16805882522734975 0.16656173581975151 0.81062773640389374 0.8240670735259662 0.20554705423518652
decision_type=2 2 2 2 2 2 2 2 2 2 2 2
left_child=1 4 -3 -4 5 -1 7 8 -2 11 -11 -8
right_child=6 2 3 -5 -6 -7 9 -9 -10 10 -12 -13
leaf_value=0.020085097823809708 0.11122499780671191 -0.48477196420219498 0.64733807257942788 0.031485981771893108 -0.71042849131788588 -0.39849063822809161 0.038665444928987901 0.57313489787653638 -0.25530560741025982 -0.27171725231484878 -0.0062686604181088389 0.47214601167679304
leaf_count=872 4861 550 402 2824 432 1253 744 713 1070 2352 23172 666
internal_value=0 -0.893192 0.17552 0.873878 -2.47726 -1.81387 0.0562118 0.817322 0.359686 -0.13098 -0.247387 1.9656
internal_count=39911 6333 3776 3226 2557 2125 33578 6644 5931 26934 25524 1410
shrinkage=0.124512


Tree=79
num_leaves=10
num_cat=0
split_feature=3 1 1 1 3 2 3 7 2
split_gain=5215.62 8398.32 10934.2 7339.25 5289.92 8890.04 8112.52 5397.11 4836.5
threshold=0.16604984103672552 0.2958877237153334 0.30216325021239748 0.33974738920936581 0.16959181065647633 0.17922533112206082 0.16881787578822391 0.43109022159766303 0.16037379034678409
decision_type=2 2 2 2 2 2 2 2 2
left_child=1 -1 -3 -4 5 6 -2 8 -6
right_child=4 2 3 -5 7 -7 -8 -9 -10
leaf_value=-0.26992900816388843 0.033453595671851688 0.78379227292576059 0.20645295393225707 -0.11464342531897491 0.43201944165130685 -0.55373273084368324 -0.52067262025396821 -0.42469925842833867 0.0077968511747927112
leaf_count=788 2490 410 3900 1534 424 692 490 442 28741
internal_value=0 0.891405 1.30649 0.927343 -0.0805086 -1.21392 -0.458065 0.0595561 0.112666
internal_count=39911 6632 5844 5434 33279 3672 2980 29607 29165
shrinkage=0.124512


Tree=80
num_leaves=6
num_cat=0
split_feature=6 3 8 4 6
split_gain=2863.34 3938.67 2831.88 3104.76 2662.14
threshold=0.48877958271175792 0.15129883584131215 0.94445348908478888 0.25659888766591826 0.40416498493444214
decision_type=2 2 2 2 2
left_child=1 -1 3 -3 -4
right_child=-2 2 4 -5 -6
leaf_value=0.34188554483626027 0.26021052042485676 -0.0063146936823388015 0.25068727480896974 -0.226618123226007 -0.011046193251529259
leaf_count=519 673 35293 1276 1025 1125
internal_value=0 0.00532284 -0.0310241 -0.101065 1.02218
internal_count=39911 39238 38719 36318 2401
shrinkage=0.124512


Tree=81
num_leaves=12
num_cat=0
split_feature=8 1 5 1 6 7 6 6 1 4 1
split_gain=4556.92 7018.09 5268.33 4720.88 4377.49 12475.7 10111.4 4032.73 3877.4 5400.21 4078.21
threshold=0.91918642025971853 0.30526645183637985 0.30805752227575095 0.3135968986057564 0.36400229393865496 0.30761588875879659 0.35702641495962345 0.37197233689131232 0.2882230693761762 0.2000286656161829 0.3142871509479041
decision_type=2 2 2 2 2 2 2 2 2 2 2
left_child=2 -2 4 -3 6 -6 -1 -5 9 -4 -10
right_child=1 3 8 7 5 -7 -8 -9 10 -11 -12
leaf_value=0.091330975353855218 0.5559065388801544 -0.32048721809818875 0.030192267708175378 -0.095316605678006691 0.5919381327698704 0.062625432064660133 -0.51670294562947938 0.18447212054493384 0.081270298845603162 -0.53452101880971892 -0.03877882231346385
leaf_count=2387 530 421 504 1051 902 2998 516 3267 5540 537 21258
internal_value=0 1.00652 0.0067214 0.616602 0.796805 1.49002 -0.129321 0.931152 -0.185812 -2.08271 -0.111565
internal_count=39911 5269 34642 4739 6803 3900 2903 4318 27839 1041 26798
shrinkage=0.124512


Tree=82
num_leaves=13
num_cat=0
split_feature=1 3 4 0 1 1 0 3 8 4 7 1
split_gain=4003.39 8247.81 6351.64 5282.43 5197.83 17370.7 5588.1 13723.4 9459.17 5261.55 2646.29 1709.16
threshold=0.34770165494860084 0.16506399193493135 0.17563953801382384 0.35902833031954634 0.33010389514845817 0.33073545641882535 0.33477536344334552 0.17876471621262674 0.91364149068897482 0.25808561177455291 0.30109889948136781 0.35885795601729448
decision_type=2 2 2 2 2 2 2 2 2 2 2 2
left_child=4 10 11 -4 6 -6 8 -8 -1 -7 -2 -3
right_child=1 2 3 -5 5 9 7 -9 -10 -11 -12 -13
leaf_value=-0.006962465478668591 -0.66584045060823249 0.1145564522267824 -0.1227145278403016 0.12247291828121518 0.79035504534906376 0.073590722089911922 0.024951508372191698 -0.34562029282409645 0.33118876322537505 -0.36843555530692385 -0.21862923587806984 0.47765983169167853
leaf_count=10954 418 438 6166 1746 524 10227 4283 2423 1453 435 439 405
internal_value=0 -0.561181 -0.269324 -0.549115 0.180479 0.722644 -0.136043 -0.872725 0.260926 0.444788 -3.52526 2.33887
internal_count=39911 9612 8755 7912 30299 11186 19113 6706 12407 10662 857 843
shrinkage=0.124512


Tree=83
num_leaves=10
num_cat=0
split_feature=6 6 4 1 4 5 8 0 5
split_gain=5186.25 7527.66 7461.21 8793.83 5548.83 8705.91 7293.44 5429.72 5957.96
threshold=0.34057476947997151 0.34302853256248367 0.19398833835433996 0.32846256320043543 0.18293109544908431 0.31730446615350388 0.75515235728466845 0.30607106736925899 0.3232375523554577
decision_type=2 2 2 2 2 2 2 2 2
left_child=2 -2 7 -4 5 -3 -6 -1 -9
right_child=1 4 3 -5 6 -7 -8 8 -10
leaf_value=-0.30152014165755958 -0.42785174122690561 0.41440450684327351 0.030132240291513214 0.65685851616372581 0.41429227630956156 0.0018642313296373689 -0.043541861020021361 0.25167358507163728 -0.046357195612868586
leaf_count=678 705 1134 687 717 550 2679 28494 1786 2481
internal_value=0 -0.200005 0.786459 2.8232 -0.13011 1.00428 -0.279554 0.205147 0.62604
internal_count=39911 33562 6349 1404 32857 3813 29044 4945 4267
shrinkage=0.124512


Tree=84
num_leaves=12
num_cat=0
split_feature=3 1 1 5 2 2 6 5 1 2 6
split_gain=6247.73 6440.75 7806.2 6739.58 5189.24 10278.7 9497.53 6727.19 8279.67 7108.66 6704.65
threshold=0.15926845689956221 0.30098317867380026 0.31960252424946317 0.32602135120023595 0.16690628118593284 0.16849985951875043 0.36186632772115246 0.35463227163920963 0.33713826270282049 0.16638013505003299 0.35612904618574365
decision_type=2 2 2 2 2 2 2 2 2 2 2
left_child=1 -1 -3 -4 7 6 -6 9 -9 -2 -7
right_child=4 2 3 -5 5 10 -8 8 -10 -11 -12
leaf_value=-0.2045466447535112 -0.14064187178814389 0.60845672364589076 0.42249557616921696 -0.17324154463550173 -0.0028280847195191073 0.094217723778134033 0.72407932899926419 -0.17662725539172952 0.50449336074121265 -0.63468994872338924 -0.041192620571601821
leaf_count=501 3518 755 535 652 526 7458 582 589 519 523 23753
internal_value=0 1.53895 2.36751 0.752487 -0.112886 0.0353587 3.03032 -1.0463 1.13027 -1.6468 -0.0704827
internal_count=39911 2443 1942 1187 37468 32319 1108 5149 1108 4041 31211
shrinkage=0.124512


Tree=85
num_leaves=11
num_cat=0
split_feature=7 6 6 3 0 4 6 7 4 6
split_gain=4201.36 10018 7746.51 6759.79 6568.37 4444.21 4389.94 5461.95 5400.5 3569.71
threshold=0.31361091105386413 0.37270257755250119 0.38209533549734315 0.15246215732142906 0.36536222698703852 0.22335544123307155 0.40230251517130949 0.33330482505272374 0.25004040917278308 0.38675346042642528
decision_type=2 2 2 2 2 2 2 2 2 2
left_child=2 -2 3 -1 -5 9 7 -3 -8 -4
right_child=1 6 5 4 -6 -7 8 -9 -10 -11
leaf_value=0.44591164339974737 0.52521366460169328 0.036685022493900411 -0.3965756772497635 -0.05901635828027367 0.21901844909579271 -0.60809047164547592 -0.080639997055178603 0.30576036844155408 0.1487107840113697 0.11194217039545204
leaf_count=457 622 6178 441 18091 1421 550 8319 1453 1969 410
internal_value=0 0.269992 -0.381175 -0.220773 -0.310591 -2.65674 0.132106 0.708077 -0.293655 -1.19976
internal_count=39911 18541 21370 19969 19512 1401 17919 7631 10288 851
shrinkage=0.124512


Tree=86
num_leaves=10
num_cat=0
split_feature=2 2 5 4 5 3 5 5 2
split_gain=3934.35 6202.31 5970.72 5498.79 8041.47 6363.15 5671.9 4667.39 3884.61
threshold=0.15698584315327221 0.15454614067265493 0.33354382125402116 0.16493105032268718 0.30671329784050455 0.15881852900679064 0.31568797387121633 0.29484223355104272 0.17105320393234455
decision_type=2 2 2 2 2 2 2 2 2
left_child=1 2 -1 4 -2 6 -5 -7 -6
right_child=3 -3 -4 5 8 7 -8 -9 -10
leaf_value=-0.30204224938558993 -0.66195463399237897 -0.54400227809255119 0.35237398860560598 0.67839714125208506 0.19109545327735056 0.16945755771295012 0.11336377233713865 -0.0049348628470929053 -0.24225676457267398
leaf_count=472 451 525 400 401 574 2570 920 32872 726
internal_value=0 -1.65121 -0 0.0594081 -1.67293 0.142326 2.29937 0.0615054 -0.39738
internal_count=39911 1397 872 38514 1751 36763 1321 35442 1300
shrinkage=0.124512


Tree=87
num_leaves=14
num_cat=0
split_feature=2 8 0 3 1 5 8 5 5 2 2 2 5
split_gain=4380.84 8455.91 12171.7 6473.81 13230.5 7080.58 5113.53 9735.39 5978.61 4799.85 9109.15 6688.75 4333.31
threshold=0.1649288317731066 0.80841825804862022 0.31870287362127314 0.16698585310265637 0.33736910172110063 0.31766785708783413 0.86269373892861301 0.33332692147395593 0.30989732040389933 0.16881787578822391 0.16944334430894079 0.1676622116936699 0.3225979030591638
decision_type=2 2 2 2 2 2 2 2 2 2 2 2 2
left_child=1 2 -1 4 5 -2 8 -8 -3 11 -11 -5 -6
right_child=3 6 -4 9 12 -7 7 -9 -10 10 -12 -13 -14
leaf_value=0.0053106588271807764 0.52928417594503818 0.53658921626793965 -0.73384211625233897 -0.056108279502981466 0.079155342652995522 0.13597630317689102 -0.61982341447361677 0.00068724597586895201 0.00013003338054861852 -0.60425604313804071 -0.024213783371426954 0.39697846770152112 -0.43977715999462147
leaf_count=644 1090 415 734 1021 400 2097 538 1428 1481 427 28001 991 644
internal_value=0 -0.979743 -3.10853 0.00202265 1.16243 2.17714 -0.216285 -1.35061 0.952011 -0.158775 -0.264971 1.33425 -1.92081
internal_count=39911 5240 1378 34671 4231 3187 3862 1966 1896 30440 28428 2012 1044
shrinkage=0.124512


Tree=88
num_leaves=13
num_cat=0
split_feature=1 1 3 2 6 8 0 2 5 6 1 8
split_gain=7867.19 8965.06 8155.91 8254.76 8198.17 7934.88 8321.02 6232.98 3671.55 19807.6 5255.97 2792.91
threshold=0.33010389514845817 0.33096211382174839 0.17696476453443452 0.17667456137924942 0.43454729863516089 0.82667642250037365 0.29966008406677075 0.17802744725774164 0.31766785708783413 0.33754150630782781 0.33974738920936581 0.7819156516053386
decision_type=2 2 2 2 2 2 2 2 2 2 2 2
left_child=2 -2 3 4 -1 11 -7 -5 9 -3 -10 -4
right_child=1 8 5 7 -6 6 -8 -9 10 -11 -12 -13
leaf_value=-0.036853760924286327 0.48719898401119682 0.50178403543987016 -0.60751912610262404 0.59088436013085122 -0.59871356998334457 0.39558584619388926 -0.13257925788757854 0.096951170359247718 0.17625816688163309 -0.16644085876765585 0.012094103368341574 -0.28072279260235383
leaf_count=7472 681 814 554 468 427 507 5190 2722 4246 4426 10675 1729
internal_value=0 0.340954 -0.548334 0.0054648 -0.541821 -1.31977 -0.684658 1.36534 0.219557 -0.500195 0.473327 -2.89806
internal_count=39911 20842 19069 11089 7899 7980 5697 3190 20161 5240 14921 2283
shrinkage=0.124512


Tree=89
num_leaves=11
num_cat=0
split_feature=7 2 5 5 4 0 5 3 7 5
split_gain=5438.52 5981.56 4505.98 6624.08 6281.73 5778.63 4628.37 4431.02 4790.89 4138.12
threshold=0.3658458548503431 0.194993863547505 0.33718857136796354 0.32977118339699363 0.22031593451373413 0.31677616154350935 0.33902891238426275 0.18645656048094145 0.414736362495077 0.34117934555452772
decision_type=2 2 2 2 2 2 2 2 2 2
left_child=2 7 3 5 -5 -1 -4 8 -2 -8
right_child=1 -3 6 4 -6 -7 9 -9 -10 -11
leaf_value=0.13574654892349344 0.27918784661711893 0.58217217498197749 -0.3399789099475688 0.30451998404904307 -0.044755690017146743 -0.036700766694188591 0.19945698847741525 -0.16649184660288674 -0.16058468237882642 -0.049668877213945778
leaf_count=4027 1797 462 799 2486 1166 12032 1112 732 484 14814
internal_value=0 1.31553 0.004528 0.329246 1.54598 0.0516122 -0.377267 0.795329 1.48625 -0.258265
internal_count=39911 3475 36436 19711 3652 16059 16725 3013 2281 15926
shrinkage=0.124512


Tree=90
num_leaves=14
num_cat=0
split_feature=3 6 1 6 5 2 6 4 3 5 6 8 2
split_gain=5107.53 9556.89 8554.84 11993.8 8311.4 5779.6 4923 8000.46 7463.94 6368.55 4524.68 6194.24 3999.56
threshold=0.16301754112080638 0.37384179117650657 0.34576099647489489 0.36186632772115246 0.32128589019045384 0.16668519136031187 0.35612904618574365 0.18419620464909031 0.17319398482979037 0.29800321761011955 0.35917628446073119 0.86446287301148339 0.20425138399085921
decision_type=2 2 2 2 2 2 2 2 2 2 2 2 2
left_child=1 2 3 -1 -3 -6 7 8 -2 -9 11 -8 -12
right_child=6 4 -4 -5 5 -7 10 9 -10 -11 12 -13 -14
leaf_value=-0.031481439667118763 0.1336931739554314 -0.78725166790602463 -0.51233625767579183 0.68135139624026186 0.075884402358603081 -0.53390078224122051 -0.025402351084628749 0.64044770997714762 -0.19861391506499998 0.15726603609790629 0.0063629724974929858 -0.64305956760867455 -0.38160774452727547
leaf_count=2138 2124 515 427 441 596 401 675 473 2070 4377 24845 409 420
internal_value=0 -0.998623 0.0284965 0.720305 -3.05055 -1.34527 0.131592 0.769026 -0.239944 1.64462 -0.0866303 -2.08954 -0.000101574
internal_count=39911 4518 3006 2579 1512 997 35393 9044 4194 4850 26349 1084 25265
shrinkage=0.124512


end of trees

feature importances:
Column_5=196
Column_8=147
Column_4=137
Column_3=112
Column_2=103
Column_6=85
Column_1=83
Column_0=71
Column_7=66

parameters:
[boosting: gbdt]
[objective: regression]
[metric: regression]
[tree_learner: serial]
[device_type: cpu]
[data: ]
[valid: ]
[num_iterations: 100]
[learning_rate: 0.124512]
[num_leaves: 2180]
[num_threads: -1]
[max_depth: 4]
[min_data_in_leaf: 400]
[min_sum_hessian_in_leaf: 0.001]
[bagging_fraction: 0.8]
[bagging_freq: 1]
[bagging_seed: 3]
[feature_fraction: 0.9]
[feature_fraction_seed: 2]
[early_stopping_round: 0]
[max_delta_step: 0]
[lambda_l1: 15]
[lambda_l2: 0]
[min_gain_to_split: 10.4885]
[drop_rate: 0.1]
[max_drop: 50]
[skip_drop: 0.5]
[xgboost_dart_mode: 0]
[uniform_drop: 0]
[drop_seed: 4]
[top_rate: 0.2]
[other_rate: 0.1]
[min_data_per_group: 100]
[max_cat_threshold: 32]
[cat_l2: 10]
[cat_smooth: 10]
[max_cat_to_onehot: 4]
[top_k: 20]
[monotone_constraints: ]
[feature_contri: ]
[forcedsplits_filename: ]
[refit_decay_rate: 0.9]
[verbosity: -1]
[max_bin: 233]
[min_data_in_bin: 3]
[bin_construct_sample_cnt: 200000]
[histogram_pool_size: -1]
[data_random_seed: 1]
[output_model: LightGBM_model.txt]
[snapshot_freq: -1]
[input_model: ]
[output_result: LightGBM_predict_result.txt]
[initscore_filename: ]
[valid_data_initscores: ]
[pre_partition: 0]
[enable_bundle: 1]
[max_conflict_rate: 0]
[is_enable_sparse: 1]
[sparse_threshold: 0.8]
[use_missing: 1]
[zero_as_missing: 0]
[two_round: 0]
[save_binary: 0]
[enable_load_from_binary_file: 1]
[header: 0]
[label_column: ]
[weight_column: ]
[group_column: ]
[ignore_column: ]
[categorical_feature: ]
[predict_raw_score: 0]
[predict_leaf_index: 0]
[predict_contrib: 0]
[num_iteration_predict: -1]
[pred_early_stop: 0]
[pred_early_stop_freq: 10]
[pred_early_stop_margin: 10]
[convert_model_language: ]
[convert_model: gbdt_prediction.cpp]
[num_class: 1]
[is_unbalance: 0]
[scale_pos_weight: 1]
[sigmoid: 1]
[boost_from_average: 1]
[reg_sqrt: 0]
[alpha: 0.9]
[fair_c: 1]
[poisson_max_delta_step: 0.7]
[tweedie_variance_power: 1.5]
[max_position: 20]
[label_gain: ]
[metric_freq: 1]
[is_provide_training_metric: 0]
[eval_at: ]
[num_machines: 1]
[local_listen_port: 12400]
[time_out: 120]
[machine_list_filename: ]
[machines: ]
[gpu_platform_id: -1]
[gpu_device_id: -1]
[gpu_use_dp: 0]

end of parameters

pandas_categorical:null
